digraph Tree {
node [shape=box] ;
0 [label="amount <= 4.462\ngini = 0.003\nsamples = 2815342\nvalue = [4447943, 5891]"] ;
1 [label="amount <= 0.952\ngini = 0.002\nsamples = 2804575\nvalue = [4431829, 4943]"] ;
0 -> 1 [labeldistance=2.5, labelangle=45, headlabel="True"] ;
2 [label="PAYMENT <= 0.5\ngini = 0.002\nsamples = 2733196\nvalue = [4320368, 3525]"] ;
1 -> 2 ;
3 [label="oldbalanceDest <= -0.324\ngini = 0.002\nsamples = 1781471\nvalue = [2814327, 3525]"] ;
2 -> 3 ;
4 [label="newbalanceDest <= -0.333\ngini = 0.012\nsamples = 233560\nvalue = [367657, 2222]"] ;
3 -> 4 ;
5 [label="oldbalanceOrg <= -0.212\ngini = 0.029\nsamples = 72501\nvalue = [113322, 1706]"] ;
4 -> 5 ;
6 [label="CASH_IN <= 0.5\ngini = 0.018\nsamples = 67107\nvalue = [105603, 963]"] ;
5 -> 6 ;
7 [label="TRANSFER <= 0.5\ngini = 0.5\nsamples = 1253\nvalue = [993, 963]"] ;
6 -> 7 ;
8 [label="amount <= -0.298\ngini = 0.006\nsamples = 609\nvalue = [929, 3]"] ;
7 -> 8 ;
9 [label="gini = 0.0\nsamples = 1\nvalue = [0, 1]"] ;
8 -> 9 ;
10 [label="amount <= -0.08\ngini = 0.004\nsamples = 608\nvalue = [929, 2]"] ;
8 -> 10 ;
11 [label="gini = 0.0\nsamples = 381\nvalue = [592, 0]"] ;
10 -> 11 ;
12 [label="amount <= -0.08\ngini = 0.012\nsamples = 227\nvalue = [337, 2]"] ;
10 -> 12 ;
13 [label="gini = 0.0\nsamples = 1\nvalue = [0, 2]"] ;
12 -> 13 ;
14 [label="gini = 0.0\nsamples = 226\nvalue = [337, 0]"] ;
12 -> 14 ;
15 [label="newbalanceOrig <= -0.29\ngini = 0.117\nsamples = 644\nvalue = [64, 960]"] ;
7 -> 15 ;
16 [label="amount <= 0.066\ngini = 0.107\nsamples = 640\nvalue = [58, 960]"] ;
15 -> 16 ;
17 [label="oldbalanceOrg <= -0.282\ngini = 0.064\nsamples = 624\nvalue = [33, 960]"] ;
16 -> 17 ;
18 [label="oldbalanceOrg <= -0.282\ngini = 0.247\nsamples = 78\nvalue = [17, 101]"] ;
17 -> 18 ;
19 [label="amount <= -0.254\ngini = 0.214\nsamples = 77\nvalue = [14, 101]"] ;
18 -> 19 ;
20 [label="oldbalanceOrg <= -0.285\ngini = 0.038\nsamples = 69\nvalue = [2, 101]"] ;
19 -> 20 ;
21 [label="oldbalanceOrg <= -0.285\ngini = 0.061\nsamples = 43\nvalue = [2, 62]"] ;
20 -> 21 ;
22 [label="oldbalanceOrg <= -0.287\ngini = 0.031\nsamples = 42\nvalue = [1, 62]"] ;
21 -> 22 ;
23 [label="amount <= -0.283\ngini = 0.064\nsamples = 20\nvalue = [1, 29]"] ;
22 -> 23 ;
24 [label="gini = 0.0\nsamples = 19\nvalue = [0, 29]"] ;
23 -> 24 ;
25 [label="gini = 0.0\nsamples = 1\nvalue = [1, 0]"] ;
23 -> 25 ;
26 [label="gini = 0.0\nsamples = 22\nvalue = [0, 33]"] ;
22 -> 26 ;
27 [label="gini = 0.0\nsamples = 1\nvalue = [1, 0]"] ;
21 -> 27 ;
28 [label="gini = 0.0\nsamples = 26\nvalue = [0, 39]"] ;
20 -> 28 ;
29 [label="gini = 0.0\nsamples = 8\nvalue = [12, 0]"] ;
19 -> 29 ;
30 [label="gini = 0.0\nsamples = 1\nvalue = [3, 0]"] ;
18 -> 30 ;
31 [label="oldbalanceOrg <= -0.268\ngini = 0.036\nsamples = 546\nvalue = [16, 859]"] ;
17 -> 31 ;
32 [label="oldbalanceOrg <= -0.268\ngini = 0.091\nsamples = 185\nvalue = [14, 280]"] ;
31 -> 32 ;
33 [label="amount <= -0.19\ngini = 0.073\nsamples = 184\nvalue = [11, 280]"] ;
32 -> 33 ;
34 [label="gini = 0.0\nsamples = 177\nvalue = [0, 280]"] ;
33 -> 34 ;
35 [label="gini = 0.0\nsamples = 7\nvalue = [11, 0]"] ;
33 -> 35 ;
36 [label="gini = 0.0\nsamples = 1\nvalue = [3, 0]"] ;
32 -> 36 ;
37 [label="amount <= -0.124\ngini = 0.007\nsamples = 361\nvalue = [2, 579]"] ;
31 -> 37 ;
38 [label="amount <= -0.124\ngini = 0.02\nsamples = 132\nvalue = [2, 200]"] ;
37 -> 38 ;
39 [label="gini = 0.0\nsamples = 131\nvalue = [0, 200]"] ;
38 -> 39 ;
40 [label="gini = 0.0\nsamples = 1\nvalue = [2, 0]"] ;
38 -> 40 ;
41 [label="gini = 0.0\nsamples = 229\nvalue = [0, 379]"] ;
37 -> 41 ;
42 [label="gini = 0.0\nsamples = 16\nvalue = [25, 0]"] ;
16 -> 42 ;
43 [label="gini = 0.0\nsamples = 4\nvalue = [6, 0]"] ;
15 -> 43 ;
44 [label="gini = 0.0\nsamples = 65854\nvalue = [104610, 0]"] ;
6 -> 44 ;
45 [label="oldbalanceOrg <= -0.03\ngini = 0.16\nsamples = 5394\nvalue = [7719, 743]"] ;
5 -> 45 ;
46 [label="TRANSFER <= 0.5\ngini = 0.173\nsamples = 4934\nvalue = [7011, 741]"] ;
45 -> 46 ;
47 [label="gini = 0.0\nsamples = 4467\nvalue = [7006, 0]"] ;
46 -> 47 ;
48 [label="amount <= 0.004\ngini = 0.013\nsamples = 467\nvalue = [5, 741]"] ;
46 -> 48 ;
49 [label="gini = 0.0\nsamples = 2\nvalue = [3, 0]"] ;
48 -> 49 ;
50 [label="newbalanceOrig <= -0.232\ngini = 0.005\nsamples = 465\nvalue = [2, 741]"] ;
48 -> 50 ;
51 [label="oldbalanceOrg <= -0.203\ngini = 0.005\nsamples = 463\nvalue = [2, 739]"] ;
50 -> 51 ;
52 [label="amount <= 0.198\ngini = 0.042\nsamples = 51\nvalue = [2, 91]"] ;
51 -> 52 ;
53 [label="gini = 0.0\nsamples = 50\nvalue = [0, 91]"] ;
52 -> 53 ;
54 [label="gini = 0.0\nsamples = 1\nvalue = [2, 0]"] ;
52 -> 54 ;
55 [label="gini = 0.0\nsamples = 412\nvalue = [0, 648]"] ;
51 -> 55 ;
56 [label="gini = 0.0\nsamples = 2\nvalue = [0, 2]"] ;
50 -> 56 ;
57 [label="oldbalanceOrg <= 2.896\ngini = 0.006\nsamples = 460\nvalue = [708, 2]"] ;
45 -> 57 ;
58 [label="oldbalanceOrg <= -0.028\ngini = 0.003\nsamples = 459\nvalue = [708, 1]"] ;
57 -> 58 ;
59 [label="newbalanceOrig <= -0.164\ngini = 0.044\nsamples = 24\nvalue = [43, 1]"] ;
58 -> 59 ;
60 [label="gini = 0.0\nsamples = 1\nvalue = [0, 1]"] ;
59 -> 60 ;
61 [label="gini = 0.0\nsamples = 23\nvalue = [43, 0]"] ;
59 -> 61 ;
62 [label="gini = 0.0\nsamples = 435\nvalue = [665, 0]"] ;
58 -> 62 ;
63 [label="gini = 0.0\nsamples = 1\nvalue = [0, 1]"] ;
57 -> 63 ;
64 [label="newbalanceOrig <= -0.292\ngini = 0.004\nsamples = 161059\nvalue = [254335, 516]"] ;
4 -> 64 ;
65 [label="oldbalanceOrg <= -0.106\ngini = 0.005\nsamples = 131945\nvalue = [208263, 516]"] ;
64 -> 65 ;
66 [label="amount <= -0.297\ngini = 0.004\nsamples = 131887\nvalue = [208229, 461]"] ;
65 -> 66 ;
67 [label="CASH_OUT <= 0.5\ngini = 0.375\nsamples = 2\nvalue = [1, 3]"] ;
66 -> 67 ;
68 [label="gini = 0.0\nsamples = 1\nvalue = [0, 3]"] ;
67 -> 68 ;
69 [label="gini = 0.0\nsamples = 1\nvalue = [1, 0]"] ;
67 -> 69 ;
70 [label="oldbalanceOrg <= -0.17\ngini = 0.004\nsamples = 131885\nvalue = [208228, 458]"] ;
66 -> 70 ;
71 [label="TRANSFER <= 0.5\ngini = 0.004\nsamples = 131557\nvalue = [207784, 381]"] ;
70 -> 71 ;
72 [label="oldbalanceOrg <= -0.21\ngini = 0.004\nsamples = 116366\nvalue = [183555, 370]"] ;
71 -> 72 ;
73 [label="oldbalanceOrg <= -0.252\ngini = 0.003\nsamples = 115420\nvalue = [182109, 310]"] ;
72 -> 73 ;
74 [label="oldbalanceOrg <= -0.27\ngini = 0.002\nsamples = 108790\nvalue = [171738, 199]"] ;
73 -> 74 ;
75 [label="amount <= -0.256\ngini = 0.002\nsamples = 95237\nvalue = [150343, 122]"] ;
74 -> 75 ;
76 [label="amount <= -0.256\ngini = 0.027\nsamples = 3672\nvalue = [5740, 81]"] ;
75 -> 76 ;
77 [label="newbalanceDest <= -0.331\ngini = 0.027\nsamples = 3670\nvalue = [5739, 79]"] ;
76 -> 77 ;
78 [label="newbalanceDest <= -0.331\ngini = 0.047\nsamples = 727\nvalue = [1132, 28]"] ;
77 -> 78 ;
79 [label="oldbalanceOrg <= -0.286\ngini = 0.046\nsamples = 726\nvalue = [1132, 27]"] ;
78 -> 79 ;
80 [label="amount <= -0.295\ngini = 0.024\nsamples = 710\nvalue = [1121, 14]"] ;
79 -> 80 ;
81 [label="newbalanceDest <= -0.333\ngini = 0.086\nsamples = 75\nvalue = [128, 6]"] ;
80 -> 81 ;
82 [label="oldbalanceOrg <= -0.288\ngini = 0.03\nsamples = 74\nvalue = [128, 2]"] ;
81 -> 82 ;
83 [label="oldbalanceOrg <= -0.288\ngini = 0.015\nsamples = 73\nvalue = [128, 1]"] ;
82 -> 83 ;
84 [label="gini = 0.0\nsamples = 68\nvalue = [122, 0]"] ;
83 -> 84 ;
85 [label="amount <= -0.296\ngini = 0.245\nsamples = 5\nvalue = [6, 1]"] ;
83 -> 85 ;
86 [label="gini = 0.0\nsamples = 1\nvalue = [0, 1]"] ;
85 -> 86 ;
87 [label="gini = 0.0\nsamples = 4\nvalue = [6, 0]"] ;
85 -> 87 ;
88 [label="gini = 0.0\nsamples = 1\nvalue = [0, 1]"] ;
82 -> 88 ;
89 [label="gini = 0.0\nsamples = 1\nvalue = [0, 4]"] ;
81 -> 89 ;
90 [label="newbalanceDest <= -0.332\ngini = 0.016\nsamples = 635\nvalue = [993, 8]"] ;
80 -> 90 ;
91 [label="newbalanceDest <= -0.332\ngini = 0.031\nsamples = 314\nvalue = [496, 8]"] ;
90 -> 91 ;
92 [label="amount <= -0.291\ngini = 0.027\nsamples = 313\nvalue = [496, 7]"] ;
91 -> 92 ;
93 [label="gini = 0.0\nsamples = 153\nvalue = [247, 0]"] ;
92 -> 93 ;
94 [label="oldbalanceOrg <= -0.287\ngini = 0.053\nsamples = 160\nvalue = [249, 7]"] ;
92 -> 94 ;
95 [label="newbalanceDest <= -0.332\ngini = 0.009\nsamples = 143\nvalue = [233, 1]"] ;
94 -> 95 ;
96 [label="oldbalanceOrg <= -0.287\ngini = 0.278\nsamples = 4\nvalue = [5, 1]"] ;
95 -> 96 ;
97 [label="gini = 0.0\nsamples = 3\nvalue = [5, 0]"] ;
96 -> 97 ;
98 [label="gini = 0.0\nsamples = 1\nvalue = [0, 1]"] ;
96 -> 98 ;
99 [label="gini = 0.0\nsamples = 139\nvalue = [228, 0]"] ;
95 -> 99 ;
100 [label="newbalanceDest <= -0.332\ngini = 0.397\nsamples = 17\nvalue = [16, 6]"] ;
94 -> 100 ;
101 [label="amount <= -0.277\ngini = 0.408\nsamples = 6\nvalue = [2, 5]"] ;
100 -> 101 ;
102 [label="oldbalanceOrg <= -0.287\ngini = 0.278\nsamples = 5\nvalue = [1, 5]"] ;
101 -> 102 ;
103 [label="gini = 0.0\nsamples = 2\nvalue = [0, 3]"] ;
102 -> 103 ;
104 [label="oldbalanceOrg <= -0.287\ngini = 0.444\nsamples = 3\nvalue = [1, 2]"] ;
102 -> 104 ;
105 [label="gini = 0.0\nsamples = 1\nvalue = [1, 0]"] ;
104 -> 105 ;
106 [label="gini = 0.0\nsamples = 2\nvalue = [0, 2]"] ;
104 -> 106 ;
107 [label="gini = 0.0\nsamples = 1\nvalue = [1, 0]"] ;
101 -> 107 ;
108 [label="newbalanceDest <= -0.332\ngini = 0.124\nsamples = 11\nvalue = [14, 1]"] ;
100 -> 108 ;
109 [label="oldbalanceOrg <= -0.287\ngini = 0.444\nsamples = 3\nvalue = [2, 1]"] ;
108 -> 109 ;
110 [label="gini = 0.0\nsamples = 2\nvalue = [2, 0]"] ;
109 -> 110 ;
111 [label="gini = 0.0\nsamples = 1\nvalue = [0, 1]"] ;
109 -> 111 ;
112 [label="gini = 0.0\nsamples = 8\nvalue = [12, 0]"] ;
108 -> 112 ;
113 [label="gini = 0.0\nsamples = 1\nvalue = [0, 1]"] ;
91 -> 113 ;
114 [label="gini = 0.0\nsamples = 321\nvalue = [497, 0]"] ;
90 -> 114 ;
115 [label="newbalanceDest <= -0.331\ngini = 0.497\nsamples = 16\nvalue = [11, 13]"] ;
79 -> 115 ;
116 [label="gini = 0.0\nsamples = 4\nvalue = [0, 6]"] ;
115 -> 116 ;
117 [label="oldbalanceOrg <= -0.286\ngini = 0.475\nsamples = 12\nvalue = [11, 7]"] ;
115 -> 117 ;
118 [label="oldbalanceOrg <= -0.286\ngini = 0.26\nsamples = 9\nvalue = [11, 2]"] ;
117 -> 118 ;
119 [label="gini = 0.0\nsamples = 5\nvalue = [8, 0]"] ;
118 -> 119 ;
120 [label="newbalanceDest <= -0.331\ngini = 0.48\nsamples = 4\nvalue = [3, 2]"] ;
118 -> 120 ;
121 [label="gini = 0.0\nsamples = 2\nvalue = [0, 2]"] ;
120 -> 121 ;
122 [label="gini = 0.0\nsamples = 2\nvalue = [3, 0]"] ;
120 -> 122 ;
123 [label="gini = 0.0\nsamples = 3\nvalue = [0, 5]"] ;
117 -> 123 ;
124 [label="gini = 0.0\nsamples = 1\nvalue = [0, 1]"] ;
78 -> 124 ;
125 [label="amount <= -0.263\ngini = 0.022\nsamples = 2943\nvalue = [4607, 51]"] ;
77 -> 125 ;
126 [label="oldbalanceOrg <= -0.283\ngini = 0.016\nsamples = 2014\nvalue = [3171, 26]"] ;
125 -> 126 ;
127 [label="oldbalanceOrg <= -0.284\ngini = 0.007\nsamples = 1964\nvalue = [3102, 11]"] ;
126 -> 127 ;
128 [label="newbalanceDest <= -0.252\ngini = 0.003\nsamples = 1817\nvalue = [2884, 5]"] ;
127 -> 128 ;
129 [label="newbalanceDest <= -0.331\ngini = 0.002\nsamples = 1802\nvalue = [2865, 3]"] ;
128 -> 129 ;
130 [label="newbalanceDest <= -0.331\ngini = 0.029\nsamples = 138\nvalue = [203, 3]"] ;
129 -> 130 ;
131 [label="oldbalanceOrg <= -0.285\ngini = 0.019\nsamples = 136\nvalue = [202, 2]"] ;
130 -> 131 ;
132 [label="gini = 0.0\nsamples = 132\nvalue = [196, 0]"] ;
131 -> 132 ;
133 [label="oldbalanceOrg <= -0.285\ngini = 0.375\nsamples = 4\nvalue = [6, 2]"] ;
131 -> 133 ;
134 [label="gini = 0.0\nsamples = 1\nvalue = [0, 1]"] ;
133 -> 134 ;
135 [label="newbalanceDest <= -0.331\ngini = 0.245\nsamples = 3\nvalue = [6, 1]"] ;
133 -> 135 ;
136 [label="gini = 0.0\nsamples = 1\nvalue = [3, 0]"] ;
135 -> 136 ;
137 [label="oldbalanceOrg <= -0.285\ngini = 0.375\nsamples = 2\nvalue = [3, 1]"] ;
135 -> 137 ;
138 [label="gini = 0.0\nsamples = 1\nvalue = [0, 1]"] ;
137 -> 138 ;
139 [label="gini = 0.0\nsamples = 1\nvalue = [3, 0]"] ;
137 -> 139 ;
140 [label="oldbalanceOrg <= -0.286\ngini = 0.5\nsamples = 2\nvalue = [1, 1]"] ;
130 -> 140 ;
141 [label="gini = 0.0\nsamples = 1\nvalue = [1, 0]"] ;
140 -> 141 ;
142 [label="gini = 0.0\nsamples = 1\nvalue = [0, 1]"] ;
140 -> 142 ;
143 [label="gini = 0.0\nsamples = 1664\nvalue = [2662, 0]"] ;
129 -> 143 ;
144 [label="amount <= -0.279\ngini = 0.172\nsamples = 15\nvalue = [19, 2]"] ;
128 -> 144 ;
145 [label="newbalanceDest <= -0.24\ngini = 0.375\nsamples = 6\nvalue = [6, 2]"] ;
144 -> 145 ;
146 [label="gini = 0.0\nsamples = 1\nvalue = [0, 2]"] ;
145 -> 146 ;
147 [label="gini = 0.0\nsamples = 5\nvalue = [6, 0]"] ;
145 -> 147 ;
148 [label="gini = 0.0\nsamples = 9\nvalue = [13, 0]"] ;
144 -> 148 ;
149 [label="amount <= -0.275\ngini = 0.052\nsamples = 147\nvalue = [218, 6]"] ;
127 -> 149 ;
150 [label="oldbalanceOrg <= -0.284\ngini = 0.5\nsamples = 8\nvalue = [6, 6]"] ;
149 -> 150 ;
151 [label="amount <= -0.277\ngini = 0.375\nsamples = 5\nvalue = [6, 2]"] ;
150 -> 151 ;
152 [label="gini = 0.0\nsamples = 1\nvalue = [0, 1]"] ;
151 -> 152 ;
153 [label="oldbalanceOrg <= -0.284\ngini = 0.245\nsamples = 4\nvalue = [6, 1]"] ;
151 -> 153 ;
154 [label="gini = 0.0\nsamples = 2\nvalue = [5, 0]"] ;
153 -> 154 ;
155 [label="amount <= -0.276\ngini = 0.5\nsamples = 2\nvalue = [1, 1]"] ;
153 -> 155 ;
156 [label="gini = 0.0\nsamples = 1\nvalue = [0, 1]"] ;
155 -> 156 ;
157 [label="gini = 0.0\nsamples = 1\nvalue = [1, 0]"] ;
155 -> 157 ;
158 [label="gini = 0.0\nsamples = 3\nvalue = [0, 4]"] ;
150 -> 158 ;
159 [label="gini = 0.0\nsamples = 139\nvalue = [212, 0]"] ;
149 -> 159 ;
160 [label="oldbalanceOrg <= -0.283\ngini = 0.293\nsamples = 50\nvalue = [69, 15]"] ;
126 -> 160 ;
161 [label="oldbalanceOrg <= -0.283\ngini = 0.469\nsamples = 4\nvalue = [3, 5]"] ;
160 -> 161 ;
162 [label="newbalanceDest <= -0.329\ngini = 0.48\nsamples = 3\nvalue = [3, 2]"] ;
161 -> 162 ;
163 [label="gini = 0.0\nsamples = 1\nvalue = [0, 2]"] ;
162 -> 163 ;
164 [label="gini = 0.0\nsamples = 2\nvalue = [3, 0]"] ;
162 -> 164 ;
165 [label="gini = 0.0\nsamples = 1\nvalue = [0, 3]"] ;
161 -> 165 ;
166 [label="newbalanceDest <= -0.328\ngini = 0.229\nsamples = 46\nvalue = [66, 10]"] ;
160 -> 166 ;
167 [label="oldbalanceOrg <= -0.282\ngini = 0.437\nsamples = 18\nvalue = [21, 10]"] ;
166 -> 167 ;
168 [label="amount <= -0.269\ngini = 0.269\nsamples = 16\nvalue = [21, 4]"] ;
167 -> 168 ;
169 [label="oldbalanceOrg <= -0.283\ngini = 0.48\nsamples = 5\nvalue = [6, 4]"] ;
168 -> 169 ;
170 [label="gini = 0.0\nsamples = 3\nvalue = [6, 0]"] ;
169 -> 170 ;
171 [label="gini = 0.0\nsamples = 2\nvalue = [0, 4]"] ;
169 -> 171 ;
172 [label="gini = 0.0\nsamples = 11\nvalue = [15, 0]"] ;
168 -> 172 ;
173 [label="gini = 0.0\nsamples = 2\nvalue = [0, 6]"] ;
167 -> 173 ;
174 [label="gini = 0.0\nsamples = 28\nvalue = [45, 0]"] ;
166 -> 174 ;
175 [label="newbalanceDest <= -0.328\ngini = 0.034\nsamples = 929\nvalue = [1436, 25]"] ;
125 -> 175 ;
176 [label="oldbalanceOrg <= -0.283\ngini = 0.48\nsamples = 2\nvalue = [3, 2]"] ;
175 -> 176 ;
177 [label="gini = 0.0\nsamples = 1\nvalue = [3, 0]"] ;
176 -> 177 ;
178 [label="gini = 0.0\nsamples = 1\nvalue = [0, 2]"] ;
176 -> 178 ;
179 [label="newbalanceDest <= -0.327\ngini = 0.031\nsamples = 927\nvalue = [1433, 23]"] ;
175 -> 179 ;
180 [label="newbalanceDest <= -0.327\ngini = 0.113\nsamples = 102\nvalue = [156, 10]"] ;
179 -> 180 ;
181 [label="newbalanceDest <= -0.328\ngini = 0.083\nsamples = 100\nvalue = [155, 7]"] ;
180 -> 181 ;
182 [label="gini = 0.0\nsamples = 48\nvalue = [80, 0]"] ;
181 -> 182 ;
183 [label="amount <= -0.262\ngini = 0.156\nsamples = 52\nvalue = [75, 7]"] ;
181 -> 183 ;
184 [label="gini = 0.0\nsamples = 1\nvalue = [0, 1]"] ;
183 -> 184 ;
185 [label="oldbalanceOrg <= -0.281\ngini = 0.137\nsamples = 51\nvalue = [75, 6]"] ;
183 -> 185 ;
186 [label="gini = 0.0\nsamples = 49\nvalue = [75, 0]"] ;
185 -> 186 ;
187 [label="gini = 0.0\nsamples = 2\nvalue = [0, 6]"] ;
185 -> 187 ;
188 [label="amount <= -0.262\ngini = 0.375\nsamples = 2\nvalue = [1, 3]"] ;
180 -> 188 ;
189 [label="gini = 0.0\nsamples = 1\nvalue = [1, 0]"] ;
188 -> 189 ;
190 [label="gini = 0.0\nsamples = 1\nvalue = [0, 3]"] ;
188 -> 190 ;
191 [label="amount <= -0.258\ngini = 0.02\nsamples = 825\nvalue = [1277, 13]"] ;
179 -> 191 ;
192 [label="amount <= -0.261\ngini = 0.012\nsamples = 534\nvalue = [818, 5]"] ;
191 -> 192 ;
193 [label="amount <= -0.261\ngini = 0.051\nsamples = 50\nvalue = [75, 2]"] ;
192 -> 193 ;
194 [label="gini = 0.0\nsamples = 49\nvalue = [75, 0]"] ;
193 -> 194 ;
195 [label="gini = 0.0\nsamples = 1\nvalue = [0, 2]"] ;
193 -> 195 ;
196 [label="oldbalanceOrg <= -0.281\ngini = 0.008\nsamples = 484\nvalue = [743, 3]"] ;
192 -> 196 ;
197 [label="gini = 0.0\nsamples = 479\nvalue = [740, 0]"] ;
196 -> 197 ;
198 [label="newbalanceDest <= -0.327\ngini = 0.5\nsamples = 5\nvalue = [3, 3]"] ;
196 -> 198 ;
199 [label="gini = 0.0\nsamples = 2\nvalue = [0, 3]"] ;
198 -> 199 ;
200 [label="gini = 0.0\nsamples = 3\nvalue = [3, 0]"] ;
198 -> 200 ;
201 [label="newbalanceDest <= -0.327\ngini = 0.034\nsamples = 291\nvalue = [459, 8]"] ;
191 -> 201 ;
202 [label="gini = 0.0\nsamples = 1\nvalue = [0, 3]"] ;
201 -> 202 ;
203 [label="oldbalanceOrg <= -0.28\ngini = 0.021\nsamples = 290\nvalue = [459, 5]"] ;
201 -> 203 ;
204 [label="gini = 0.0\nsamples = 288\nvalue = [459, 0]"] ;
203 -> 204 ;
205 [label="gini = 0.0\nsamples = 2\nvalue = [0, 5]"] ;
203 -> 205 ;
206 [label="oldbalanceOrg <= -0.281\ngini = 0.444\nsamples = 2\nvalue = [1, 2]"] ;
76 -> 206 ;
207 [label="gini = 0.0\nsamples = 1\nvalue = [1, 0]"] ;
206 -> 207 ;
208 [label="gini = 0.0\nsamples = 1\nvalue = [0, 2]"] ;
206 -> 208 ;
209 [label="amount <= -0.24\ngini = 0.001\nsamples = 91565\nvalue = [144603, 41]"] ;
75 -> 209 ;
210 [label="amount <= -0.24\ngini = 0.011\nsamples = 2475\nvalue = [3809, 22]"] ;
209 -> 210 ;
211 [label="newbalanceDest <= -0.325\ngini = 0.011\nsamples = 2473\nvalue = [3808, 21]"] ;
210 -> 211 ;
212 [label="newbalanceDest <= -0.326\ngini = 0.006\nsamples = 1773\nvalue = [2706, 8]"] ;
211 -> 212 ;
213 [label="amount <= -0.252\ngini = 0.013\nsamples = 511\nvalue = [786, 5]"] ;
212 -> 213 ;
214 [label="amount <= -0.253\ngini = 0.003\nsamples = 505\nvalue = [778, 1]"] ;
213 -> 214 ;
215 [label="gini = 0.0\nsamples = 434\nvalue = [666, 0]"] ;
214 -> 215 ;
216 [label="oldbalanceOrg <= -0.28\ngini = 0.018\nsamples = 71\nvalue = [112, 1]"] ;
214 -> 216 ;
217 [label="gini = 0.0\nsamples = 70\nvalue = [112, 0]"] ;
216 -> 217 ;
218 [label="gini = 0.0\nsamples = 1\nvalue = [0, 1]"] ;
216 -> 218 ;
219 [label="amount <= -0.252\ngini = 0.444\nsamples = 6\nvalue = [8, 4]"] ;
213 -> 219 ;
220 [label="gini = 0.0\nsamples = 1\nvalue = [0, 4]"] ;
219 -> 220 ;
221 [label="gini = 0.0\nsamples = 5\nvalue = [8, 0]"] ;
219 -> 221 ;
222 [label="newbalanceDest <= -0.325\ngini = 0.003\nsamples = 1262\nvalue = [1920, 3]"] ;
212 -> 222 ;
223 [label="oldbalanceOrg <= -0.279\ngini = 0.001\nsamples = 906\nvalue = [1380, 1]"] ;
222 -> 223 ;
224 [label="gini = 0.0\nsamples = 894\nvalue = [1364, 0]"] ;
223 -> 224 ;
225 [label="oldbalanceOrg <= -0.279\ngini = 0.111\nsamples = 12\nvalue = [16, 1]"] ;
223 -> 225 ;
226 [label="gini = 0.0\nsamples = 1\nvalue = [0, 1]"] ;
225 -> 226 ;
227 [label="gini = 0.0\nsamples = 11\nvalue = [16, 0]"] ;
225 -> 227 ;
228 [label="newbalanceDest <= -0.325\ngini = 0.007\nsamples = 356\nvalue = [540, 2]"] ;
222 -> 228 ;
229 [label="gini = 0.0\nsamples = 1\nvalue = [0, 2]"] ;
228 -> 229 ;
230 [label="gini = 0.0\nsamples = 355\nvalue = [540, 0]"] ;
228 -> 230 ;
231 [label="oldbalanceOrg <= -0.277\ngini = 0.023\nsamples = 700\nvalue = [1102, 13]"] ;
211 -> 231 ;
232 [label="oldbalanceOrg <= -0.278\ngini = 0.005\nsamples = 691\nvalue = [1098, 3]"] ;
231 -> 232 ;
233 [label="gini = 0.0\nsamples = 685\nvalue = [1090, 0]"] ;
232 -> 233 ;
234 [label="oldbalanceOrg <= -0.277\ngini = 0.397\nsamples = 6\nvalue = [8, 3]"] ;
232 -> 234 ;
235 [label="gini = 0.0\nsamples = 2\nvalue = [0, 2]"] ;
234 -> 235 ;
236 [label="newbalanceDest <= -0.324\ngini = 0.198\nsamples = 4\nvalue = [8, 1]"] ;
234 -> 236 ;
237 [label="gini = 0.0\nsamples = 1\nvalue = [0, 1]"] ;
236 -> 237 ;
238 [label="gini = 0.0\nsamples = 3\nvalue = [8, 0]"] ;
236 -> 238 ;
239 [label="amount <= -0.241\ngini = 0.408\nsamples = 9\nvalue = [4, 10]"] ;
231 -> 239 ;
240 [label="gini = 0.0\nsamples = 5\nvalue = [0, 9]"] ;
239 -> 240 ;
241 [label="oldbalanceOrg <= -0.277\ngini = 0.32\nsamples = 4\nvalue = [4, 1]"] ;
239 -> 241 ;
242 [label="gini = 0.0\nsamples = 2\nvalue = [3, 0]"] ;
241 -> 242 ;
243 [label="oldbalanceOrg <= -0.277\ngini = 0.5\nsamples = 2\nvalue = [1, 1]"] ;
241 -> 243 ;
244 [label="gini = 0.0\nsamples = 1\nvalue = [0, 1]"] ;
243 -> 244 ;
245 [label="gini = 0.0\nsamples = 1\nvalue = [1, 0]"] ;
243 -> 245 ;
246 [label="newbalanceDest <= -0.269\ngini = 0.5\nsamples = 2\nvalue = [1, 1]"] ;
210 -> 246 ;
247 [label="gini = 0.0\nsamples = 1\nvalue = [0, 1]"] ;
246 -> 247 ;
248 [label="gini = 0.0\nsamples = 1\nvalue = [1, 0]"] ;
246 -> 248 ;
249 [label="amount <= -0.212\ngini = 0.0\nsamples = 89090\nvalue = [140794, 19]"] ;
209 -> 249 ;
250 [label="newbalanceDest <= -0.32\ngini = 0.003\nsamples = 5086\nvalue = [8084, 11]"] ;
249 -> 250 ;
251 [label="amount <= -0.232\ngini = 0.002\nsamples = 4614\nvalue = [7323, 6]"] ;
250 -> 251 ;
252 [label="amount <= -0.232\ngini = 0.003\nsamples = 1483\nvalue = [2329, 3]"] ;
251 -> 252 ;
253 [label="oldbalanceOrg <= -0.275\ngini = 0.002\nsamples = 1482\nvalue = [2329, 2]"] ;
252 -> 253 ;
254 [label="newbalanceDest <= -0.324\ngini = 0.001\nsamples = 1481\nvalue = [2329, 1]"] ;
253 -> 254 ;
255 [label="newbalanceDest <= -0.324\ngini = 0.003\nsamples = 414\nvalue = [633, 1]"] ;
254 -> 255 ;
256 [label="gini = 0.0\nsamples = 413\nvalue = [633, 0]"] ;
255 -> 256 ;
257 [label="gini = 0.0\nsamples = 1\nvalue = [0, 1]"] ;
255 -> 257 ;
258 [label="gini = 0.0\nsamples = 1067\nvalue = [1696, 0]"] ;
254 -> 258 ;
259 [label="gini = 0.0\nsamples = 1\nvalue = [0, 1]"] ;
253 -> 259 ;
260 [label="gini = 0.0\nsamples = 1\nvalue = [0, 1]"] ;
252 -> 260 ;
261 [label="oldbalanceOrg <= -0.274\ngini = 0.001\nsamples = 3131\nvalue = [4994, 3]"] ;
251 -> 261 ;
262 [label="gini = 0.0\nsamples = 3096\nvalue = [4943, 0]"] ;
261 -> 262 ;
263 [label="amount <= -0.225\ngini = 0.105\nsamples = 35\nvalue = [51, 3]"] ;
261 -> 263 ;
264 [label="gini = 0.0\nsamples = 1\nvalue = [0, 1]"] ;
263 -> 264 ;
265 [label="oldbalanceOrg <= -0.273\ngini = 0.073\nsamples = 34\nvalue = [51, 2]"] ;
263 -> 265 ;
266 [label="oldbalanceOrg <= -0.273\ngini = 0.278\nsamples = 4\nvalue = [5, 1]"] ;
265 -> 266 ;
267 [label="gini = 0.0\nsamples = 3\nvalue = [5, 0]"] ;
266 -> 267 ;
268 [label="gini = 0.0\nsamples = 1\nvalue = [0, 1]"] ;
266 -> 268 ;
269 [label="amount <= -0.216\ngini = 0.042\nsamples = 30\nvalue = [46, 1]"] ;
265 -> 269 ;
270 [label="oldbalanceOrg <= -0.272\ngini = 0.091\nsamples = 17\nvalue = [20, 1]"] ;
269 -> 270 ;
271 [label="gini = 0.0\nsamples = 16\nvalue = [20, 0]"] ;
270 -> 271 ;
272 [label="gini = 0.0\nsamples = 1\nvalue = [0, 1]"] ;
270 -> 272 ;
273 [label="gini = 0.0\nsamples = 13\nvalue = [26, 0]"] ;
269 -> 273 ;
274 [label="oldbalanceOrg <= -0.271\ngini = 0.013\nsamples = 472\nvalue = [761, 5]"] ;
250 -> 274 ;
275 [label="gini = 0.0\nsamples = 462\nvalue = [748, 0]"] ;
274 -> 275 ;
276 [label="amount <= -0.213\ngini = 0.401\nsamples = 10\nvalue = [13, 5]"] ;
274 -> 276 ;
277 [label="gini = 0.0\nsamples = 2\nvalue = [0, 4]"] ;
276 -> 277 ;
278 [label="amount <= -0.212\ngini = 0.133\nsamples = 8\nvalue = [13, 1]"] ;
276 -> 278 ;
279 [label="gini = 0.0\nsamples = 7\nvalue = [13, 0]"] ;
278 -> 279 ;
280 [label="gini = 0.0\nsamples = 1\nvalue = [0, 1]"] ;
278 -> 280 ;
281 [label="oldbalanceOrg <= -0.289\ngini = 0.0\nsamples = 84004\nvalue = [132710, 8]"] ;
249 -> 281 ;
282 [label="newbalanceDest <= -0.254\ngini = 0.023\nsamples = 387\nvalue = [604, 7]"] ;
281 -> 282 ;
283 [label="amount <= -0.139\ngini = 0.009\nsamples = 275\nvalue = [434, 2]"] ;
282 -> 283 ;
284 [label="amount <= -0.141\ngini = 0.033\nsamples = 71\nvalue = [116, 2]"] ;
283 -> 284 ;
285 [label="gini = 0.0\nsamples = 70\nvalue = [116, 0]"] ;
284 -> 285 ;
286 [label="gini = 0.0\nsamples = 1\nvalue = [0, 2]"] ;
284 -> 286 ;
287 [label="gini = 0.0\nsamples = 204\nvalue = [318, 0]"] ;
283 -> 287 ;
288 [label="amount <= 0.38\ngini = 0.056\nsamples = 112\nvalue = [170, 5]"] ;
282 -> 288 ;
289 [label="newbalanceDest <= -0.254\ngini = 0.077\nsamples = 76\nvalue = [119, 5]"] ;
288 -> 289 ;
290 [label="gini = 0.0\nsamples = 1\nvalue = [0, 2]"] ;
289 -> 290 ;
291 [label="amount <= 0.375\ngini = 0.048\nsamples = 75\nvalue = [119, 3]"] ;
289 -> 291 ;
292 [label="gini = 0.0\nsamples = 74\nvalue = [119, 0]"] ;
291 -> 292 ;
293 [label="gini = 0.0\nsamples = 1\nvalue = [0, 3]"] ;
291 -> 293 ;
294 [label="gini = 0.0\nsamples = 36\nvalue = [51, 0]"] ;
288 -> 294 ;
295 [label="newbalanceDest <= -0.297\ngini = 0.0\nsamples = 83617\nvalue = [132106, 1]"] ;
281 -> 295 ;
296 [label="amount <= -0.078\ngini = 0.0\nsamples = 27187\nvalue = [43093, 1]"] ;
295 -> 296 ;
297 [label="gini = 0.0\nsamples = 26583\nvalue = [42139, 0]"] ;
296 -> 297 ;
298 [label="oldbalanceOrg <= -0.287\ngini = 0.002\nsamples = 604\nvalue = [954, 1]"] ;
296 -> 298 ;
299 [label="amount <= -0.075\ngini = 0.009\nsamples = 144\nvalue = [227, 1]"] ;
298 -> 299 ;
300 [label="gini = 0.0\nsamples = 1\nvalue = [0, 1]"] ;
299 -> 300 ;
301 [label="gini = 0.0\nsamples = 143\nvalue = [227, 0]"] ;
299 -> 301 ;
302 [label="gini = 0.0\nsamples = 460\nvalue = [727, 0]"] ;
298 -> 302 ;
303 [label="gini = 0.0\nsamples = 56430\nvalue = [89013, 0]"] ;
295 -> 303 ;
304 [label="amount <= -0.207\ngini = 0.007\nsamples = 13553\nvalue = [21395, 77]"] ;
74 -> 304 ;
305 [label="newbalanceDest <= -0.319\ngini = 0.219\nsamples = 6\nvalue = [1, 7]"] ;
304 -> 305 ;
306 [label="gini = 0.0\nsamples = 4\nvalue = [0, 6]"] ;
305 -> 306 ;
307 [label="oldbalanceOrg <= -0.27\ngini = 0.5\nsamples = 2\nvalue = [1, 1]"] ;
305 -> 307 ;
308 [label="gini = 0.0\nsamples = 1\nvalue = [1, 0]"] ;
307 -> 308 ;
309 [label="gini = 0.0\nsamples = 1\nvalue = [0, 1]"] ;
307 -> 309 ;
310 [label="newbalanceDest <= -0.305\ngini = 0.007\nsamples = 13547\nvalue = [21394, 70]"] ;
304 -> 310 ;
311 [label="oldbalanceOrg <= -0.26\ngini = 0.05\nsamples = 1688\nvalue = [2646, 70]"] ;
310 -> 311 ;
312 [label="amount <= -0.188\ngini = 0.031\nsamples = 1451\nvalue = [2288, 36]"] ;
311 -> 312 ;
313 [label="amount <= -0.188\ngini = 0.195\nsamples = 130\nvalue = [187, 23]"] ;
312 -> 313 ;
314 [label="newbalanceDest <= -0.317\ngini = 0.188\nsamples = 129\nvalue = [187, 22]"] ;
313 -> 314 ;
315 [label="newbalanceDest <= -0.317\ngini = 0.303\nsamples = 39\nvalue = [48, 11]"] ;
314 -> 315 ;
316 [label="amount <= -0.202\ngini = 0.198\nsamples = 36\nvalue = [48, 6]"] ;
315 -> 316 ;
317 [label="oldbalanceOrg <= -0.269\ngini = 0.363\nsamples = 14\nvalue = [16, 5]"] ;
316 -> 317 ;
318 [label="gini = 0.0\nsamples = 11\nvalue = [16, 0]"] ;
317 -> 318 ;
319 [label="gini = 0.0\nsamples = 3\nvalue = [0, 5]"] ;
317 -> 319 ;
320 [label="newbalanceDest <= -0.317\ngini = 0.059\nsamples = 22\nvalue = [32, 1]"] ;
316 -> 320 ;
321 [label="gini = 0.0\nsamples = 16\nvalue = [21, 0]"] ;
320 -> 321 ;
322 [label="amount <= -0.2\ngini = 0.153\nsamples = 6\nvalue = [11, 1]"] ;
320 -> 322 ;
323 [label="gini = 0.0\nsamples = 1\nvalue = [0, 1]"] ;
322 -> 323 ;
324 [label="gini = 0.0\nsamples = 5\nvalue = [11, 0]"] ;
322 -> 324 ;
325 [label="gini = 0.0\nsamples = 3\nvalue = [0, 5]"] ;
315 -> 325 ;
326 [label="newbalanceDest <= -0.316\ngini = 0.136\nsamples = 90\nvalue = [139, 11]"] ;
314 -> 326 ;
327 [label="newbalanceDest <= -0.316\ngini = 0.028\nsamples = 42\nvalue = [69, 1]"] ;
326 -> 327 ;
328 [label="newbalanceDest <= -0.316\ngini = 0.062\nsamples = 18\nvalue = [30, 1]"] ;
327 -> 328 ;
329 [label="gini = 0.0\nsamples = 17\nvalue = [30, 0]"] ;
328 -> 329 ;
330 [label="gini = 0.0\nsamples = 1\nvalue = [0, 1]"] ;
328 -> 330 ;
331 [label="gini = 0.0\nsamples = 24\nvalue = [39, 0]"] ;
327 -> 331 ;
332 [label="oldbalanceOrg <= -0.267\ngini = 0.219\nsamples = 48\nvalue = [70, 10]"] ;
326 -> 332 ;
333 [label="gini = 0.0\nsamples = 42\nvalue = [69, 0]"] ;
332 -> 333 ;
334 [label="newbalanceDest <= -0.316\ngini = 0.165\nsamples = 6\nvalue = [1, 10]"] ;
332 -> 334 ;
335 [label="gini = 0.0\nsamples = 4\nvalue = [0, 8]"] ;
334 -> 335 ;
336 [label="oldbalanceOrg <= -0.266\ngini = 0.444\nsamples = 2\nvalue = [1, 2]"] ;
334 -> 336 ;
337 [label="gini = 0.0\nsamples = 1\nvalue = [1, 0]"] ;
336 -> 337 ;
338 [label="gini = 0.0\nsamples = 1\nvalue = [0, 2]"] ;
336 -> 338 ;
339 [label="gini = 0.0\nsamples = 1\nvalue = [0, 1]"] ;
313 -> 339 ;
340 [label="amount <= -0.172\ngini = 0.012\nsamples = 1321\nvalue = [2101, 13]"] ;
312 -> 340 ;
341 [label="newbalanceDest <= -0.313\ngini = 0.052\nsamples = 253\nvalue = [400, 11]"] ;
340 -> 341 ;
342 [label="amount <= -0.181\ngini = 0.048\nsamples = 251\nvalue = [399, 10]"] ;
341 -> 342 ;
343 [label="gini = 0.0\nsamples = 95\nvalue = [154, 0]"] ;
342 -> 343 ;
344 [label="amount <= -0.181\ngini = 0.075\nsamples = 156\nvalue = [245, 10]"] ;
342 -> 344 ;
345 [label="gini = 0.0\nsamples = 2\nvalue = [0, 5]"] ;
344 -> 345 ;
346 [label="amount <= -0.179\ngini = 0.039\nsamples = 154\nvalue = [245, 5]"] ;
344 -> 346 ;
347 [label="oldbalanceOrg <= -0.264\ngini = 0.081\nsamples = 35\nvalue = [45, 2]"] ;
346 -> 347 ;
348 [label="gini = 0.0\nsamples = 33\nvalue = [45, 0]"] ;
347 -> 348 ;
349 [label="gini = 0.0\nsamples = 2\nvalue = [0, 2]"] ;
347 -> 349 ;
350 [label="oldbalanceOrg <= -0.263\ngini = 0.029\nsamples = 119\nvalue = [200, 3]"] ;
346 -> 350 ;
351 [label="gini = 0.0\nsamples = 113\nvalue = [195, 0]"] ;
350 -> 351 ;
352 [label="newbalanceDest <= -0.313\ngini = 0.469\nsamples = 6\nvalue = [5, 3]"] ;
350 -> 352 ;
353 [label="gini = 0.0\nsamples = 2\nvalue = [0, 3]"] ;
352 -> 353 ;
354 [label="gini = 0.0\nsamples = 4\nvalue = [5, 0]"] ;
352 -> 354 ;
355 [label="amount <= -0.174\ngini = 0.5\nsamples = 2\nvalue = [1, 1]"] ;
341 -> 355 ;
356 [label="gini = 0.0\nsamples = 1\nvalue = [1, 0]"] ;
355 -> 356 ;
357 [label="gini = 0.0\nsamples = 1\nvalue = [0, 1]"] ;
355 -> 357 ;
358 [label="oldbalanceOrg <= -0.261\ngini = 0.002\nsamples = 1068\nvalue = [1701, 2]"] ;
340 -> 358 ;
359 [label="gini = 0.0\nsamples = 964\nvalue = [1535, 0]"] ;
358 -> 359 ;
360 [label="amount <= -0.165\ngini = 0.024\nsamples = 104\nvalue = [166, 2]"] ;
358 -> 360 ;
361 [label="gini = 0.0\nsamples = 2\nvalue = [0, 2]"] ;
360 -> 361 ;
362 [label="gini = 0.0\nsamples = 102\nvalue = [166, 0]"] ;
360 -> 362 ;
363 [label="oldbalanceOrg <= -0.26\ngini = 0.158\nsamples = 237\nvalue = [358, 34]"] ;
311 -> 363 ;
364 [label="gini = 0.0\nsamples = 1\nvalue = [0, 2]"] ;
363 -> 364 ;
365 [label="newbalanceDest <= -0.305\ngini = 0.151\nsamples = 236\nvalue = [358, 32]"] ;
363 -> 365 ;
366 [label="amount <= -0.155\ngini = 0.143\nsamples = 235\nvalue = [358, 30]"] ;
365 -> 366 ;
367 [label="oldbalanceOrg <= -0.26\ngini = 0.484\nsamples = 11\nvalue = [7, 10]"] ;
366 -> 367 ;
368 [label="gini = 0.0\nsamples = 3\nvalue = [3, 0]"] ;
367 -> 368 ;
369 [label="newbalanceDest <= -0.31\ngini = 0.408\nsamples = 8\nvalue = [4, 10]"] ;
367 -> 369 ;
370 [label="gini = 0.0\nsamples = 2\nvalue = [0, 5]"] ;
369 -> 370 ;
371 [label="newbalanceDest <= -0.31\ngini = 0.494\nsamples = 6\nvalue = [4, 5]"] ;
369 -> 371 ;
372 [label="gini = 0.0\nsamples = 1\nvalue = [2, 0]"] ;
371 -> 372 ;
373 [label="oldbalanceOrg <= -0.259\ngini = 0.408\nsamples = 5\nvalue = [2, 5]"] ;
371 -> 373 ;
374 [label="gini = 0.0\nsamples = 1\nvalue = [1, 0]"] ;
373 -> 374 ;
375 [label="oldbalanceOrg <= -0.259\ngini = 0.278\nsamples = 4\nvalue = [1, 5]"] ;
373 -> 375 ;
376 [label="gini = 0.0\nsamples = 2\nvalue = [0, 3]"] ;
375 -> 376 ;
377 [label="amount <= -0.156\ngini = 0.444\nsamples = 2\nvalue = [1, 2]"] ;
375 -> 377 ;
378 [label="gini = 0.0\nsamples = 1\nvalue = [1, 0]"] ;
377 -> 378 ;
379 [label="gini = 0.0\nsamples = 1\nvalue = [0, 2]"] ;
377 -> 379 ;
380 [label="oldbalanceOrg <= -0.256\ngini = 0.102\nsamples = 224\nvalue = [351, 20]"] ;
366 -> 380 ;
381 [label="amount <= -0.145\ngini = 0.029\nsamples = 123\nvalue = [204, 3]"] ;
380 -> 381 ;
382 [label="oldbalanceOrg <= -0.257\ngini = 0.087\nsamples = 37\nvalue = [63, 3]"] ;
381 -> 382 ;
383 [label="oldbalanceOrg <= -0.258\ngini = 0.031\nsamples = 36\nvalue = [63, 1]"] ;
382 -> 383 ;
384 [label="gini = 0.0\nsamples = 26\nvalue = [50, 0]"] ;
383 -> 384 ;
385 [label="amount <= -0.148\ngini = 0.133\nsamples = 10\nvalue = [13, 1]"] ;
383 -> 385 ;
386 [label="gini = 0.0\nsamples = 1\nvalue = [0, 1]"] ;
385 -> 386 ;
387 [label="gini = 0.0\nsamples = 9\nvalue = [13, 0]"] ;
385 -> 387 ;
388 [label="gini = 0.0\nsamples = 1\nvalue = [0, 2]"] ;
382 -> 388 ;
389 [label="gini = 0.0\nsamples = 86\nvalue = [141, 0]"] ;
381 -> 389 ;
390 [label="amount <= -0.135\ngini = 0.186\nsamples = 101\nvalue = [147, 17]"] ;
380 -> 390 ;
391 [label="newbalanceDest <= -0.307\ngini = 0.278\nsamples = 6\nvalue = [2, 10]"] ;
390 -> 391 ;
392 [label="gini = 0.0\nsamples = 3\nvalue = [0, 7]"] ;
391 -> 392 ;
393 [label="newbalanceDest <= -0.307\ngini = 0.48\nsamples = 3\nvalue = [2, 3]"] ;
391 -> 393 ;
394 [label="gini = 0.0\nsamples = 1\nvalue = [2, 0]"] ;
393 -> 394 ;
395 [label="gini = 0.0\nsamples = 2\nvalue = [0, 3]"] ;
393 -> 395 ;
396 [label="oldbalanceOrg <= -0.253\ngini = 0.088\nsamples = 95\nvalue = [145, 7]"] ;
390 -> 396 ;
397 [label="oldbalanceOrg <= -0.253\ngini = 0.11\nsamples = 75\nvalue = [113, 7]"] ;
396 -> 397 ;
398 [label="newbalanceDest <= -0.306\ngini = 0.081\nsamples = 74\nvalue = [113, 5]"] ;
397 -> 398 ;
399 [label="oldbalanceOrg <= -0.254\ngini = 0.119\nsamples = 49\nvalue = [74, 5]"] ;
398 -> 399 ;
400 [label="amount <= -0.132\ngini = 0.084\nsamples = 42\nvalue = [65, 3]"] ;
399 -> 400 ;
401 [label="oldbalanceOrg <= -0.254\ngini = 0.355\nsamples = 9\nvalue = [10, 3]"] ;
400 -> 401 ;
402 [label="oldbalanceOrg <= -0.255\ngini = 0.278\nsamples = 8\nvalue = [10, 2]"] ;
401 -> 402 ;
403 [label="gini = 0.0\nsamples = 3\nvalue = [3, 0]"] ;
402 -> 403 ;
404 [label="amount <= -0.134\ngini = 0.346\nsamples = 5\nvalue = [7, 2]"] ;
402 -> 404 ;
405 [label="gini = 0.0\nsamples = 1\nvalue = [0, 1]"] ;
404 -> 405 ;
406 [label="newbalanceDest <= -0.306\ngini = 0.219\nsamples = 4\nvalue = [7, 1]"] ;
404 -> 406 ;
407 [label="gini = 0.0\nsamples = 2\nvalue = [4, 0]"] ;
406 -> 407 ;
408 [label="newbalanceDest <= -0.306\ngini = 0.375\nsamples = 2\nvalue = [3, 1]"] ;
406 -> 408 ;
409 [label="gini = 0.0\nsamples = 1\nvalue = [0, 1]"] ;
408 -> 409 ;
410 [label="gini = 0.0\nsamples = 1\nvalue = [3, 0]"] ;
408 -> 410 ;
411 [label="gini = 0.0\nsamples = 1\nvalue = [0, 1]"] ;
401 -> 411 ;
412 [label="gini = 0.0\nsamples = 33\nvalue = [55, 0]"] ;
400 -> 412 ;
413 [label="newbalanceDest <= -0.307\ngini = 0.298\nsamples = 7\nvalue = [9, 2]"] ;
399 -> 413 ;
414 [label="gini = 0.0\nsamples = 6\nvalue = [9, 0]"] ;
413 -> 414 ;
415 [label="gini = 0.0\nsamples = 1\nvalue = [0, 2]"] ;
413 -> 415 ;
416 [label="gini = 0.0\nsamples = 25\nvalue = [39, 0]"] ;
398 -> 416 ;
417 [label="gini = 0.0\nsamples = 1\nvalue = [0, 2]"] ;
397 -> 417 ;
418 [label="gini = 0.0\nsamples = 20\nvalue = [32, 0]"] ;
396 -> 418 ;
419 [label="gini = 0.0\nsamples = 1\nvalue = [0, 2]"] ;
365 -> 419 ;
420 [label="gini = 0.0\nsamples = 11859\nvalue = [18748, 0]"] ;
310 -> 420 ;
421 [label="amount <= -0.12\ngini = 0.021\nsamples = 6630\nvalue = [10371, 111]"] ;
73 -> 421 ;
422 [label="amount <= -0.121\ngini = 0.165\nsamples = 5\nvalue = [1, 10]"] ;
421 -> 422 ;
423 [label="oldbalanceOrg <= -0.252\ngini = 0.375\nsamples = 2\nvalue = [1, 3]"] ;
422 -> 423 ;
424 [label="gini = 0.0\nsamples = 1\nvalue = [0, 3]"] ;
423 -> 424 ;
425 [label="gini = 0.0\nsamples = 1\nvalue = [1, 0]"] ;
423 -> 425 ;
426 [label="gini = 0.0\nsamples = 3\nvalue = [0, 7]"] ;
422 -> 426 ;
427 [label="oldbalanceOrg <= -0.25\ngini = 0.019\nsamples = 6625\nvalue = [10370, 101]"] ;
421 -> 427 ;
428 [label="oldbalanceOrg <= -0.251\ngini = 0.002\nsamples = 1100\nvalue = [1766, 2]"] ;
427 -> 428 ;
429 [label="gini = 0.0\nsamples = 570\nvalue = [900, 0]"] ;
428 -> 429 ;
430 [label="oldbalanceOrg <= -0.251\ngini = 0.005\nsamples = 530\nvalue = [866, 2]"] ;
428 -> 430 ;
431 [label="newbalanceDest <= -0.293\ngini = 0.5\nsamples = 2\nvalue = [2, 2]"] ;
430 -> 431 ;
432 [label="gini = 0.0\nsamples = 1\nvalue = [0, 2]"] ;
431 -> 432 ;
433 [label="gini = 0.0\nsamples = 1\nvalue = [2, 0]"] ;
431 -> 433 ;
434 [label="gini = 0.0\nsamples = 528\nvalue = [864, 0]"] ;
430 -> 434 ;
435 [label="amount <= -0.104\ngini = 0.022\nsamples = 5525\nvalue = [8604, 99]"] ;
427 -> 435 ;
436 [label="newbalanceDest <= -0.302\ngini = 0.375\nsamples = 13\nvalue = [5, 15]"] ;
435 -> 436 ;
437 [label="gini = 0.0\nsamples = 3\nvalue = [0, 6]"] ;
436 -> 437 ;
438 [label="amount <= -0.109\ngini = 0.459\nsamples = 10\nvalue = [5, 9]"] ;
436 -> 438 ;
439 [label="gini = 0.0\nsamples = 3\nvalue = [3, 0]"] ;
438 -> 439 ;
440 [label="oldbalanceOrg <= -0.249\ngini = 0.298\nsamples = 7\nvalue = [2, 9]"] ;
438 -> 440 ;
441 [label="gini = 0.0\nsamples = 1\nvalue = [1, 0]"] ;
440 -> 441 ;
442 [label="oldbalanceOrg <= -0.249\ngini = 0.18\nsamples = 6\nvalue = [1, 9]"] ;
440 -> 442 ;
443 [label="amount <= -0.108\ngini = 0.375\nsamples = 2\nvalue = [1, 3]"] ;
442 -> 443 ;
444 [label="gini = 0.0\nsamples = 1\nvalue = [0, 3]"] ;
443 -> 444 ;
445 [label="gini = 0.0\nsamples = 1\nvalue = [1, 0]"] ;
443 -> 445 ;
446 [label="gini = 0.0\nsamples = 4\nvalue = [0, 6]"] ;
442 -> 446 ;
447 [label="newbalanceDest <= -0.296\ngini = 0.019\nsamples = 5512\nvalue = [8599, 84]"] ;
435 -> 447 ;
448 [label="newbalanceDest <= -0.296\ngini = 0.157\nsamples = 232\nvalue = [352, 33]"] ;
447 -> 448 ;
449 [label="newbalanceDest <= -0.301\ngini = 0.149\nsamples = 231\nvalue = [352, 31]"] ;
448 -> 449 ;
450 [label="newbalanceDest <= -0.302\ngini = 0.022\nsamples = 51\nvalue = [88, 1]"] ;
449 -> 450 ;
451 [label="gini = 0.0\nsamples = 40\nvalue = [70, 0]"] ;
450 -> 451 ;
452 [label="newbalanceDest <= -0.302\ngini = 0.1\nsamples = 11\nvalue = [18, 1]"] ;
450 -> 452 ;
453 [label="gini = 0.0\nsamples = 1\nvalue = [0, 1]"] ;
452 -> 453 ;
454 [label="gini = 0.0\nsamples = 10\nvalue = [18, 0]"] ;
452 -> 454 ;
455 [label="oldbalanceOrg <= -0.243\ngini = 0.183\nsamples = 180\nvalue = [264, 30]"] ;
449 -> 455 ;
456 [label="oldbalanceOrg <= -0.246\ngini = 0.115\nsamples = 157\nvalue = [245, 16]"] ;
455 -> 456 ;
457 [label="amount <= -0.1\ngini = 0.041\nsamples = 121\nvalue = [189, 4]"] ;
456 -> 457 ;
458 [label="gini = 0.0\nsamples = 1\nvalue = [0, 1]"] ;
457 -> 458 ;
459 [label="amount <= -0.098\ngini = 0.031\nsamples = 120\nvalue = [189, 3]"] ;
457 -> 459 ;
460 [label="amount <= -0.098\ngini = 0.278\nsamples = 12\nvalue = [15, 3]"] ;
459 -> 460 ;
461 [label="newbalanceDest <= -0.301\ngini = 0.208\nsamples = 11\nvalue = [15, 2]"] ;
460 -> 461 ;
462 [label="gini = 0.0\nsamples = 6\nvalue = [9, 0]"] ;
461 -> 462 ;
463 [label="newbalanceDest <= -0.301\ngini = 0.375\nsamples = 5\nvalue = [6, 2]"] ;
461 -> 463 ;
464 [label="newbalanceDest <= -0.301\ngini = 0.444\nsamples = 3\nvalue = [1, 2]"] ;
463 -> 464 ;
465 [label="gini = 0.0\nsamples = 1\nvalue = [0, 1]"] ;
464 -> 465 ;
466 [label="oldbalanceOrg <= -0.248\ngini = 0.5\nsamples = 2\nvalue = [1, 1]"] ;
464 -> 466 ;
467 [label="gini = 0.0\nsamples = 1\nvalue = [1, 0]"] ;
466 -> 467 ;
468 [label="gini = 0.0\nsamples = 1\nvalue = [0, 1]"] ;
466 -> 468 ;
469 [label="gini = 0.0\nsamples = 2\nvalue = [5, 0]"] ;
463 -> 469 ;
470 [label="gini = 0.0\nsamples = 1\nvalue = [0, 1]"] ;
460 -> 470 ;
471 [label="gini = 0.0\nsamples = 108\nvalue = [174, 0]"] ;
459 -> 471 ;
472 [label="amount <= -0.087\ngini = 0.291\nsamples = 36\nvalue = [56, 12]"] ;
456 -> 472 ;
473 [label="amount <= -0.093\ngini = 0.492\nsamples = 9\nvalue = [7, 9]"] ;
472 -> 473 ;
474 [label="gini = 0.0\nsamples = 1\nvalue = [0, 3]"] ;
473 -> 474 ;
475 [label="oldbalanceOrg <= -0.245\ngini = 0.497\nsamples = 8\nvalue = [7, 6]"] ;
473 -> 475 ;
476 [label="gini = 0.0\nsamples = 4\nvalue = [7, 0]"] ;
475 -> 476 ;
477 [label="gini = 0.0\nsamples = 4\nvalue = [0, 6]"] ;
475 -> 477 ;
478 [label="amount <= -0.081\ngini = 0.109\nsamples = 27\nvalue = [49, 3]"] ;
472 -> 478 ;
479 [label="amount <= -0.081\ngini = 0.305\nsamples = 11\nvalue = [13, 3]"] ;
478 -> 479 ;
480 [label="newbalanceDest <= -0.298\ngini = 0.133\nsamples = 10\nvalue = [13, 1]"] ;
479 -> 480 ;
481 [label="gini = 0.0\nsamples = 6\nvalue = [10, 0]"] ;
480 -> 481 ;
482 [label="amount <= -0.084\ngini = 0.375\nsamples = 4\nvalue = [3, 1]"] ;
480 -> 482 ;
483 [label="gini = 0.0\nsamples = 1\nvalue = [0, 1]"] ;
482 -> 483 ;
484 [label="gini = 0.0\nsamples = 3\nvalue = [3, 0]"] ;
482 -> 484 ;
485 [label="gini = 0.0\nsamples = 1\nvalue = [0, 2]"] ;
479 -> 485 ;
486 [label="gini = 0.0\nsamples = 16\nvalue = [36, 0]"] ;
478 -> 486 ;
487 [label="amount <= -0.075\ngini = 0.489\nsamples = 23\nvalue = [19, 14]"] ;
455 -> 487 ;
488 [label="gini = 0.0\nsamples = 3\nvalue = [0, 8]"] ;
487 -> 488 ;
489 [label="newbalanceDest <= -0.297\ngini = 0.365\nsamples = 20\nvalue = [19, 6]"] ;
487 -> 489 ;
490 [label="gini = 0.0\nsamples = 7\nvalue = [8, 0]"] ;
489 -> 490 ;
491 [label="amount <= -0.074\ngini = 0.457\nsamples = 13\nvalue = [11, 6]"] ;
489 -> 491 ;
492 [label="gini = 0.0\nsamples = 1\nvalue = [0, 2]"] ;
491 -> 492 ;
493 [label="newbalanceDest <= -0.296\ngini = 0.391\nsamples = 12\nvalue = [11, 4]"] ;
491 -> 493 ;
494 [label="newbalanceDest <= -0.296\ngini = 0.463\nsamples = 9\nvalue = [7, 4]"] ;
493 -> 494 ;
495 [label="newbalanceDest <= -0.296\ngini = 0.42\nsamples = 8\nvalue = [7, 3]"] ;
494 -> 495 ;
496 [label="oldbalanceOrg <= -0.242\ngini = 0.469\nsamples = 6\nvalue = [5, 3]"] ;
495 -> 496 ;
497 [label="gini = 0.0\nsamples = 3\nvalue = [5, 0]"] ;
496 -> 497 ;
498 [label="gini = 0.0\nsamples = 3\nvalue = [0, 3]"] ;
496 -> 498 ;
499 [label="gini = 0.0\nsamples = 2\nvalue = [2, 0]"] ;
495 -> 499 ;
500 [label="gini = 0.0\nsamples = 1\nvalue = [0, 1]"] ;
494 -> 500 ;
501 [label="gini = 0.0\nsamples = 3\nvalue = [4, 0]"] ;
493 -> 501 ;
502 [label="gini = 0.0\nsamples = 1\nvalue = [0, 2]"] ;
448 -> 502 ;
503 [label="newbalanceDest <= -0.275\ngini = 0.012\nsamples = 5280\nvalue = [8247, 51]"] ;
447 -> 503 ;
504 [label="oldbalanceOrg <= -0.217\ngini = 0.042\nsamples = 1513\nvalue = [2318, 51]"] ;
503 -> 504 ;
505 [label="amount <= 0.041\ngini = 0.037\nsamples = 1506\nvalue = [2315, 45]"] ;
504 -> 505 ;
506 [label="amount <= 0.041\ngini = 0.045\nsamples = 1248\nvalue = [1915, 45]"] ;
505 -> 506 ;
507 [label="newbalanceDest <= -0.283\ngini = 0.043\nsamples = 1247\nvalue = [1915, 43]"] ;
506 -> 507 ;
508 [label="newbalanceDest <= -0.283\ngini = 0.052\nsamples = 804\nvalue = [1228, 34]"] ;
507 -> 508 ;
509 [label="amount <= 0.006\ngini = 0.05\nsamples = 803\nvalue = [1228, 32]"] ;
508 -> 509 ;
510 [label="newbalanceDest <= -0.284\ngini = 0.052\nsamples = 758\nvalue = [1155, 32]"] ;
509 -> 510 ;
511 [label="amount <= -0.063\ngini = 0.049\nsamples = 757\nvalue = [1155, 30]"] ;
510 -> 511 ;
512 [label="gini = 0.0\nsamples = 32\nvalue = [52, 0]"] ;
511 -> 512 ;
513 [label="newbalanceDest <= -0.295\ngini = 0.052\nsamples = 725\nvalue = [1103, 30]"] ;
511 -> 513 ;
514 [label="gini = 0.0\nsamples = 1\nvalue = [0, 1]"] ;
513 -> 514 ;
515 [label="amount <= -0.02\ngini = 0.05\nsamples = 724\nvalue = [1103, 29]"] ;
513 -> 515 ;
516 [label="amount <= -0.02\ngini = 0.06\nsamples = 411\nvalue = [597, 19]"] ;
515 -> 516 ;
517 [label="newbalanceDest <= -0.289\ngini = 0.054\nsamples = 410\nvalue = [597, 17]"] ;
516 -> 517 ;
518 [label="oldbalanceOrg <= -0.232\ngini = 0.043\nsamples = 332\nvalue = [491, 11]"] ;
517 -> 518 ;
519 [label="oldbalanceOrg <= -0.239\ngini = 0.039\nsamples = 331\nvalue = [491, 10]"] ;
518 -> 519 ;
520 [label="gini = 0.0\nsamples = 246\nvalue = [369, 0]"] ;
519 -> 520 ;
521 [label="amount <= -0.045\ngini = 0.14\nsamples = 85\nvalue = [122, 10]"] ;
519 -> 521 ;
522 [label="newbalanceDest <= -0.294\ngini = 0.435\nsamples = 20\nvalue = [17, 8]"] ;
521 -> 522 ;
523 [label="gini = 0.0\nsamples = 2\nvalue = [0, 2]"] ;
522 -> 523 ;
524 [label="amount <= -0.045\ngini = 0.386\nsamples = 18\nvalue = [17, 6]"] ;
522 -> 524 ;
525 [label="oldbalanceOrg <= -0.237\ngini = 0.351\nsamples = 17\nvalue = [17, 5]"] ;
524 -> 525 ;
526 [label="newbalanceDest <= -0.293\ngini = 0.198\nsamples = 14\nvalue = [16, 2]"] ;
525 -> 526 ;
527 [label="oldbalanceOrg <= -0.238\ngini = 0.444\nsamples = 5\nvalue = [4, 2]"] ;
526 -> 527 ;
528 [label="gini = 0.0\nsamples = 3\nvalue = [4, 0]"] ;
527 -> 528 ;
529 [label="gini = 0.0\nsamples = 2\nvalue = [0, 2]"] ;
527 -> 529 ;
530 [label="gini = 0.0\nsamples = 9\nvalue = [12, 0]"] ;
526 -> 530 ;
531 [label="newbalanceDest <= -0.292\ngini = 0.375\nsamples = 3\nvalue = [1, 3]"] ;
525 -> 531 ;
532 [label="newbalanceDest <= -0.292\ngini = 0.5\nsamples = 2\nvalue = [1, 1]"] ;
531 -> 532 ;
533 [label="gini = 0.0\nsamples = 1\nvalue = [0, 1]"] ;
532 -> 533 ;
534 [label="gini = 0.0\nsamples = 1\nvalue = [1, 0]"] ;
532 -> 534 ;
535 [label="gini = 0.0\nsamples = 1\nvalue = [0, 2]"] ;
531 -> 535 ;
536 [label="gini = 0.0\nsamples = 1\nvalue = [0, 1]"] ;
524 -> 536 ;
537 [label="newbalanceDest <= -0.29\ngini = 0.037\nsamples = 65\nvalue = [105, 2]"] ;
521 -> 537 ;
538 [label="newbalanceDest <= -0.29\ngini = 0.08\nsamples = 27\nvalue = [46, 2]"] ;
537 -> 538 ;
539 [label="amount <= -0.036\ngini = 0.042\nsamples = 26\nvalue = [46, 1]"] ;
538 -> 539 ;
540 [label="gini = 0.0\nsamples = 22\nvalue = [40, 0]"] ;
539 -> 540 ;
541 [label="amount <= -0.035\ngini = 0.245\nsamples = 4\nvalue = [6, 1]"] ;
539 -> 541 ;
542 [label="gini = 0.0\nsamples = 1\nvalue = [0, 1]"] ;
541 -> 542 ;
543 [label="gini = 0.0\nsamples = 3\nvalue = [6, 0]"] ;
541 -> 543 ;
544 [label="gini = 0.0\nsamples = 1\nvalue = [0, 1]"] ;
538 -> 544 ;
545 [label="gini = 0.0\nsamples = 38\nvalue = [59, 0]"] ;
537 -> 545 ;
546 [label="gini = 0.0\nsamples = 1\nvalue = [0, 1]"] ;
518 -> 546 ;
547 [label="oldbalanceOrg <= -0.232\ngini = 0.101\nsamples = 78\nvalue = [106, 6]"] ;
517 -> 547 ;
548 [label="gini = 0.0\nsamples = 76\nvalue = [106, 0]"] ;
547 -> 548 ;
549 [label="gini = 0.0\nsamples = 2\nvalue = [0, 6]"] ;
547 -> 549 ;
550 [label="gini = 0.0\nsamples = 1\nvalue = [0, 2]"] ;
516 -> 550 ;
551 [label="oldbalanceOrg <= -0.227\ngini = 0.038\nsamples = 313\nvalue = [506, 10]"] ;
515 -> 551 ;
552 [label="newbalanceDest <= -0.285\ngini = 0.016\nsamples = 310\nvalue = [506, 4]"] ;
551 -> 552 ;
553 [label="newbalanceDest <= -0.285\ngini = 0.026\nsamples = 179\nvalue = [294, 4]"] ;
552 -> 553 ;
554 [label="oldbalanceOrg <= -0.229\ngini = 0.02\nsamples = 178\nvalue = [294, 3]"] ;
553 -> 554 ;
555 [label="gini = 0.0\nsamples = 175\nvalue = [293, 0]"] ;
554 -> 555 ;
556 [label="amount <= -0.01\ngini = 0.375\nsamples = 3\nvalue = [1, 3]"] ;
554 -> 556 ;
557 [label="gini = 0.0\nsamples = 1\nvalue = [0, 2]"] ;
556 -> 557 ;
558 [label="oldbalanceOrg <= -0.228\ngini = 0.5\nsamples = 2\nvalue = [1, 1]"] ;
556 -> 558 ;
559 [label="gini = 0.0\nsamples = 1\nvalue = [1, 0]"] ;
558 -> 559 ;
560 [label="gini = 0.0\nsamples = 1\nvalue = [0, 1]"] ;
558 -> 560 ;
561 [label="gini = 0.0\nsamples = 1\nvalue = [0, 1]"] ;
553 -> 561 ;
562 [label="gini = 0.0\nsamples = 131\nvalue = [212, 0]"] ;
552 -> 562 ;
563 [label="gini = 0.0\nsamples = 3\nvalue = [0, 6]"] ;
551 -> 563 ;
564 [label="gini = 0.0\nsamples = 1\nvalue = [0, 2]"] ;
510 -> 564 ;
565 [label="gini = 0.0\nsamples = 45\nvalue = [73, 0]"] ;
509 -> 565 ;
566 [label="gini = 0.0\nsamples = 1\nvalue = [0, 2]"] ;
508 -> 566 ;
567 [label="oldbalanceOrg <= -0.223\ngini = 0.026\nsamples = 443\nvalue = [687, 9]"] ;
507 -> 567 ;
568 [label="gini = 0.0\nsamples = 404\nvalue = [640, 0]"] ;
567 -> 568 ;
569 [label="oldbalanceOrg <= -0.223\ngini = 0.27\nsamples = 39\nvalue = [47, 9]"] ;
567 -> 569 ;
570 [label="gini = 0.0\nsamples = 2\nvalue = [0, 2]"] ;
569 -> 570 ;
571 [label="oldbalanceOrg <= -0.221\ngini = 0.226\nsamples = 37\nvalue = [47, 7]"] ;
569 -> 571 ;
572 [label="gini = 0.0\nsamples = 13\nvalue = [19, 0]"] ;
571 -> 572 ;
573 [label="oldbalanceOrg <= -0.22\ngini = 0.32\nsamples = 24\nvalue = [28, 7]"] ;
571 -> 573 ;
574 [label="gini = 0.0\nsamples = 2\nvalue = [0, 2]"] ;
573 -> 574 ;
575 [label="newbalanceDest <= -0.279\ngini = 0.257\nsamples = 22\nvalue = [28, 5]"] ;
573 -> 575 ;
576 [label="gini = 0.0\nsamples = 1\nvalue = [0, 2]"] ;
575 -> 576 ;
577 [label="oldbalanceOrg <= -0.219\ngini = 0.175\nsamples = 21\nvalue = [28, 3]"] ;
575 -> 577 ;
578 [label="gini = 0.0\nsamples = 12\nvalue = [20, 0]"] ;
577 -> 578 ;
579 [label="amount <= 0.037\ngini = 0.397\nsamples = 9\nvalue = [8, 3]"] ;
577 -> 579 ;
580 [label="gini = 0.0\nsamples = 2\nvalue = [0, 2]"] ;
579 -> 580 ;
581 [label="oldbalanceOrg <= -0.219\ngini = 0.198\nsamples = 7\nvalue = [8, 1]"] ;
579 -> 581 ;
582 [label="gini = 0.0\nsamples = 3\nvalue = [4, 0]"] ;
581 -> 582 ;
583 [label="newbalanceDest <= -0.278\ngini = 0.32\nsamples = 4\nvalue = [4, 1]"] ;
581 -> 583 ;
584 [label="gini = 0.0\nsamples = 1\nvalue = [0, 1]"] ;
583 -> 584 ;
585 [label="gini = 0.0\nsamples = 3\nvalue = [4, 0]"] ;
583 -> 585 ;
586 [label="gini = 0.0\nsamples = 1\nvalue = [0, 2]"] ;
506 -> 586 ;
587 [label="gini = 0.0\nsamples = 258\nvalue = [400, 0]"] ;
505 -> 587 ;
588 [label="amount <= 0.094\ngini = 0.444\nsamples = 7\nvalue = [3, 6]"] ;
504 -> 588 ;
589 [label="amount <= 0.052\ngini = 0.245\nsamples = 6\nvalue = [1, 6]"] ;
588 -> 589 ;
590 [label="newbalanceDest <= -0.276\ngini = 0.444\nsamples = 3\nvalue = [1, 2]"] ;
589 -> 590 ;
591 [label="gini = 0.0\nsamples = 2\nvalue = [0, 2]"] ;
590 -> 591 ;
592 [label="gini = 0.0\nsamples = 1\nvalue = [1, 0]"] ;
590 -> 592 ;
593 [label="gini = 0.0\nsamples = 3\nvalue = [0, 4]"] ;
589 -> 593 ;
594 [label="gini = 0.0\nsamples = 1\nvalue = [2, 0]"] ;
588 -> 594 ;
595 [label="gini = 0.0\nsamples = 3767\nvalue = [5929, 0]"] ;
503 -> 595 ;
596 [label="amount <= 0.088\ngini = 0.077\nsamples = 946\nvalue = [1446, 60]"] ;
72 -> 596 ;
597 [label="oldbalanceOrg <= -0.209\ngini = 0.298\nsamples = 6\nvalue = [2, 9]"] ;
596 -> 597 ;
598 [label="gini = 0.0\nsamples = 1\nvalue = [0, 4]"] ;
597 -> 598 ;
599 [label="newbalanceDest <= -0.271\ngini = 0.408\nsamples = 5\nvalue = [2, 5]"] ;
597 -> 599 ;
600 [label="gini = 0.0\nsamples = 1\nvalue = [1, 0]"] ;
599 -> 600 ;
601 [label="oldbalanceOrg <= -0.208\ngini = 0.278\nsamples = 4\nvalue = [1, 5]"] ;
599 -> 601 ;
602 [label="amount <= 0.086\ngini = 0.444\nsamples = 2\nvalue = [1, 2]"] ;
601 -> 602 ;
603 [label="gini = 0.0\nsamples = 1\nvalue = [0, 2]"] ;
602 -> 603 ;
604 [label="gini = 0.0\nsamples = 1\nvalue = [1, 0]"] ;
602 -> 604 ;
605 [label="gini = 0.0\nsamples = 2\nvalue = [0, 3]"] ;
601 -> 605 ;
606 [label="newbalanceDest <= -0.254\ngini = 0.066\nsamples = 940\nvalue = [1444, 51]"] ;
596 -> 606 ;
607 [label="oldbalanceOrg <= -0.195\ngini = 0.202\nsamples = 206\nvalue = [287, 37]"] ;
606 -> 607 ;
608 [label="newbalanceDest <= -0.261\ngini = 0.121\nsamples = 172\nvalue = [246, 17]"] ;
607 -> 608 ;
609 [label="oldbalanceOrg <= -0.202\ngini = 0.219\nsamples = 89\nvalue = [119, 17]"] ;
608 -> 609 ;
610 [label="amount <= 0.106\ngini = 0.022\nsamples = 54\nvalue = [89, 1]"] ;
609 -> 610 ;
611 [label="newbalanceDest <= -0.267\ngini = 0.124\nsamples = 9\nvalue = [14, 1]"] ;
610 -> 611 ;
612 [label="gini = 0.0\nsamples = 8\nvalue = [14, 0]"] ;
611 -> 612 ;
613 [label="gini = 0.0\nsamples = 1\nvalue = [0, 1]"] ;
611 -> 613 ;
614 [label="gini = 0.0\nsamples = 45\nvalue = [75, 0]"] ;
610 -> 614 ;
615 [label="newbalanceDest <= -0.266\ngini = 0.454\nsamples = 35\nvalue = [30, 16]"] ;
609 -> 615 ;
616 [label="gini = 0.0\nsamples = 11\nvalue = [14, 0]"] ;
615 -> 616 ;
617 [label="amount <= 0.123\ngini = 0.5\nsamples = 24\nvalue = [16, 16]"] ;
615 -> 617 ;
618 [label="gini = 0.0\nsamples = 6\nvalue = [0, 8]"] ;
617 -> 618 ;
619 [label="amount <= 0.142\ngini = 0.444\nsamples = 18\nvalue = [16, 8]"] ;
617 -> 619 ;
620 [label="oldbalanceOrg <= -0.198\ngini = 0.397\nsamples = 17\nvalue = [16, 6]"] ;
619 -> 620 ;
621 [label="newbalanceDest <= -0.263\ngini = 0.198\nsamples = 16\nvalue = [16, 2]"] ;
620 -> 621 ;
622 [label="amount <= 0.127\ngini = 0.5\nsamples = 4\nvalue = [2, 2]"] ;
621 -> 622 ;
623 [label="gini = 0.0\nsamples = 2\nvalue = [2, 0]"] ;
622 -> 623 ;
624 [label="gini = 0.0\nsamples = 2\nvalue = [0, 2]"] ;
622 -> 624 ;
625 [label="gini = 0.0\nsamples = 12\nvalue = [14, 0]"] ;
621 -> 625 ;
626 [label="gini = 0.0\nsamples = 1\nvalue = [0, 4]"] ;
620 -> 626 ;
627 [label="gini = 0.0\nsamples = 1\nvalue = [0, 2]"] ;
619 -> 627 ;
628 [label="gini = 0.0\nsamples = 83\nvalue = [127, 0]"] ;
608 -> 628 ;
629 [label="amount <= 0.162\ngini = 0.441\nsamples = 34\nvalue = [41, 20]"] ;
607 -> 629 ;
630 [label="gini = 0.0\nsamples = 7\nvalue = [0, 12]"] ;
629 -> 630 ;
631 [label="amount <= 0.188\ngini = 0.273\nsamples = 27\nvalue = [41, 8]"] ;
629 -> 631 ;
632 [label="newbalanceDest <= -0.254\ngini = 0.417\nsamples = 15\nvalue = [19, 8]"] ;
631 -> 632 ;
633 [label="newbalanceDest <= -0.258\ngini = 0.365\nsamples = 14\nvalue = [19, 6]"] ;
632 -> 633 ;
634 [label="gini = 0.0\nsamples = 2\nvalue = [5, 0]"] ;
633 -> 634 ;
635 [label="newbalanceDest <= -0.257\ngini = 0.42\nsamples = 12\nvalue = [14, 6]"] ;
633 -> 635 ;
636 [label="gini = 0.0\nsamples = 1\nvalue = [0, 1]"] ;
635 -> 636 ;
637 [label="amount <= 0.181\ngini = 0.388\nsamples = 11\nvalue = [14, 5]"] ;
635 -> 637 ;
638 [label="oldbalanceOrg <= -0.191\ngini = 0.32\nsamples = 9\nvalue = [12, 3]"] ;
637 -> 638 ;
639 [label="gini = 0.0\nsamples = 7\nvalue = [12, 0]"] ;
638 -> 639 ;
640 [label="gini = 0.0\nsamples = 2\nvalue = [0, 3]"] ;
638 -> 640 ;
641 [label="oldbalanceOrg <= -0.189\ngini = 0.5\nsamples = 2\nvalue = [2, 2]"] ;
637 -> 641 ;
642 [label="gini = 0.0\nsamples = 1\nvalue = [2, 0]"] ;
641 -> 642 ;
643 [label="gini = 0.0\nsamples = 1\nvalue = [0, 2]"] ;
641 -> 643 ;
644 [label="gini = 0.0\nsamples = 1\nvalue = [0, 2]"] ;
632 -> 644 ;
645 [label="gini = 0.0\nsamples = 12\nvalue = [22, 0]"] ;
631 -> 645 ;
646 [label="amount <= 0.249\ngini = 0.024\nsamples = 734\nvalue = [1157, 14]"] ;
606 -> 646 ;
647 [label="amount <= 0.247\ngini = 0.082\nsamples = 185\nvalue = [292, 13]"] ;
646 -> 647 ;
648 [label="amount <= 0.225\ngini = 0.059\nsamples = 181\nvalue = [287, 9]"] ;
647 -> 648 ;
649 [label="oldbalanceOrg <= -0.181\ngini = 0.098\nsamples = 98\nvalue = [146, 8]"] ;
648 -> 649 ;
650 [label="oldbalanceOrg <= -0.187\ngini = 0.064\nsamples = 95\nvalue = [146, 5]"] ;
649 -> 650 ;
651 [label="gini = 0.0\nsamples = 77\nvalue = [118, 0]"] ;
650 -> 651 ;
652 [label="oldbalanceOrg <= -0.186\ngini = 0.257\nsamples = 18\nvalue = [28, 5]"] ;
650 -> 652 ;
653 [label="gini = 0.0\nsamples = 1\nvalue = [0, 1]"] ;
652 -> 653 ;
654 [label="newbalanceDest <= -0.219\ngini = 0.219\nsamples = 17\nvalue = [28, 4]"] ;
652 -> 654 ;
655 [label="amount <= 0.202\ngini = 0.067\nsamples = 16\nvalue = [28, 1]"] ;
654 -> 655 ;
656 [label="amount <= 0.199\ngini = 0.32\nsamples = 3\nvalue = [4, 1]"] ;
655 -> 656 ;
657 [label="gini = 0.0\nsamples = 2\nvalue = [4, 0]"] ;
656 -> 657 ;
658 [label="gini = 0.0\nsamples = 1\nvalue = [0, 1]"] ;
656 -> 658 ;
659 [label="gini = 0.0\nsamples = 13\nvalue = [24, 0]"] ;
655 -> 659 ;
660 [label="gini = 0.0\nsamples = 1\nvalue = [0, 3]"] ;
654 -> 660 ;
661 [label="gini = 0.0\nsamples = 3\nvalue = [0, 3]"] ;
649 -> 661 ;
662 [label="newbalanceDest <= -0.246\ngini = 0.014\nsamples = 83\nvalue = [141, 1]"] ;
648 -> 662 ;
663 [label="amount <= 0.234\ngini = 0.039\nsamples = 31\nvalue = [49, 1]"] ;
662 -> 663 ;
664 [label="gini = 0.0\nsamples = 30\nvalue = [49, 0]"] ;
663 -> 664 ;
665 [label="gini = 0.0\nsamples = 1\nvalue = [0, 1]"] ;
663 -> 665 ;
666 [label="gini = 0.0\nsamples = 52\nvalue = [92, 0]"] ;
662 -> 666 ;
667 [label="oldbalanceOrg <= -0.178\ngini = 0.494\nsamples = 4\nvalue = [5, 4]"] ;
647 -> 667 ;
668 [label="gini = 0.0\nsamples = 2\nvalue = [5, 0]"] ;
667 -> 668 ;
669 [label="gini = 0.0\nsamples = 2\nvalue = [0, 4]"] ;
667 -> 669 ;
670 [label="newbalanceDest <= -0.24\ngini = 0.002\nsamples = 549\nvalue = [865, 1]"] ;
646 -> 670 ;
671 [label="oldbalanceOrg <= -0.172\ngini = 0.024\nsamples = 50\nvalue = [80, 1]"] ;
670 -> 671 ;
672 [label="gini = 0.0\nsamples = 49\nvalue = [80, 0]"] ;
671 -> 672 ;
673 [label="gini = 0.0\nsamples = 1\nvalue = [0, 1]"] ;
671 -> 673 ;
674 [label="gini = 0.0\nsamples = 499\nvalue = [785, 0]"] ;
670 -> 674 ;
675 [label="oldbalanceOrg <= -0.18\ngini = 0.001\nsamples = 15191\nvalue = [24229, 11]"] ;
71 -> 675 ;
676 [label="amount <= -0.282\ngini = 0.0\nsamples = 15150\nvalue = [24170, 5]"] ;
675 -> 676 ;
677 [label="amount <= -0.283\ngini = 0.056\nsamples = 44\nvalue = [67, 2]"] ;
676 -> 677 ;
678 [label="gini = 0.0\nsamples = 43\nvalue = [67, 0]"] ;
677 -> 678 ;
679 [label="gini = 0.0\nsamples = 1\nvalue = [0, 2]"] ;
677 -> 679 ;
680 [label="amount <= -0.193\ngini = 0.0\nsamples = 15106\nvalue = [24103, 3]"] ;
676 -> 680 ;
681 [label="newbalanceDest <= -0.301\ngini = 0.003\nsamples = 935\nvalue = [1463, 2]"] ;
680 -> 681 ;
682 [label="gini = 0.0\nsamples = 928\nvalue = [1454, 0]"] ;
681 -> 682 ;
683 [label="oldbalanceOrg <= -0.272\ngini = 0.298\nsamples = 7\nvalue = [9, 2]"] ;
681 -> 683 ;
684 [label="gini = 0.0\nsamples = 6\nvalue = [9, 0]"] ;
683 -> 684 ;
685 [label="gini = 0.0\nsamples = 1\nvalue = [0, 2]"] ;
683 -> 685 ;
686 [label="amount <= -0.05\ngini = 0.0\nsamples = 14171\nvalue = [22640, 1]"] ;
680 -> 686 ;
687 [label="oldbalanceOrg <= -0.24\ngini = 0.001\nsamples = 2124\nvalue = [3404, 1]"] ;
686 -> 687 ;
688 [label="gini = 0.0\nsamples = 2123\nvalue = [3404, 0]"] ;
687 -> 688 ;
689 [label="gini = 0.0\nsamples = 1\nvalue = [0, 1]"] ;
687 -> 689 ;
690 [label="gini = 0.0\nsamples = 12047\nvalue = [19236, 0]"] ;
686 -> 690 ;
691 [label="newbalanceDest <= -0.293\ngini = 0.168\nsamples = 41\nvalue = [59, 6]"] ;
675 -> 691 ;
692 [label="gini = 0.0\nsamples = 1\nvalue = [0, 5]"] ;
691 -> 692 ;
693 [label="oldbalanceOrg <= -0.178\ngini = 0.033\nsamples = 40\nvalue = [59, 1]"] ;
691 -> 693 ;
694 [label="newbalanceDest <= -0.232\ngini = 0.165\nsamples = 8\nvalue = [10, 1]"] ;
693 -> 694 ;
695 [label="newbalanceDest <= -0.235\ngini = 0.5\nsamples = 2\nvalue = [1, 1]"] ;
694 -> 695 ;
696 [label="gini = 0.0\nsamples = 1\nvalue = [1, 0]"] ;
695 -> 696 ;
697 [label="gini = 0.0\nsamples = 1\nvalue = [0, 1]"] ;
695 -> 697 ;
698 [label="gini = 0.0\nsamples = 6\nvalue = [9, 0]"] ;
694 -> 698 ;
699 [label="gini = 0.0\nsamples = 32\nvalue = [49, 0]"] ;
693 -> 699 ;
700 [label="newbalanceDest <= -0.196\ngini = 0.252\nsamples = 328\nvalue = [444, 77]"] ;
70 -> 700 ;
701 [label="TRANSFER <= 0.5\ngini = 0.396\nsamples = 177\nvalue = [198, 74]"] ;
700 -> 701 ;
702 [label="newbalanceDest <= -0.236\ngini = 0.439\nsamples = 151\nvalue = [153, 74]"] ;
701 -> 702 ;
703 [label="oldbalanceOrg <= -0.154\ngini = 0.486\nsamples = 16\nvalue = [10, 14]"] ;
702 -> 703 ;
704 [label="amount <= 0.278\ngini = 0.42\nsamples = 13\nvalue = [6, 14]"] ;
703 -> 704 ;
705 [label="gini = 0.0\nsamples = 5\nvalue = [0, 9]"] ;
704 -> 705 ;
706 [label="newbalanceDest <= -0.238\ngini = 0.496\nsamples = 8\nvalue = [6, 5]"] ;
704 -> 706 ;
707 [label="gini = 0.0\nsamples = 4\nvalue = [6, 0]"] ;
706 -> 707 ;
708 [label="gini = 0.0\nsamples = 4\nvalue = [0, 5]"] ;
706 -> 708 ;
709 [label="gini = 0.0\nsamples = 3\nvalue = [4, 0]"] ;
703 -> 709 ;
710 [label="amount <= 0.323\ngini = 0.416\nsamples = 135\nvalue = [143, 60]"] ;
702 -> 710 ;
711 [label="amount <= 0.308\ngini = 0.172\nsamples = 14\nvalue = [19, 2]"] ;
710 -> 711 ;
712 [label="oldbalanceOrg <= -0.164\ngini = 0.444\nsamples = 3\nvalue = [2, 1]"] ;
711 -> 712 ;
713 [label="gini = 0.0\nsamples = 2\nvalue = [2, 0]"] ;
712 -> 713 ;
714 [label="gini = 0.0\nsamples = 1\nvalue = [0, 1]"] ;
712 -> 714 ;
715 [label="newbalanceDest <= -0.232\ngini = 0.105\nsamples = 11\nvalue = [17, 1]"] ;
711 -> 715 ;
716 [label="gini = 0.0\nsamples = 6\nvalue = [10, 0]"] ;
715 -> 716 ;
717 [label="oldbalanceOrg <= -0.161\ngini = 0.219\nsamples = 5\nvalue = [7, 1]"] ;
715 -> 717 ;
718 [label="gini = 0.0\nsamples = 4\nvalue = [7, 0]"] ;
717 -> 718 ;
719 [label="gini = 0.0\nsamples = 1\nvalue = [0, 1]"] ;
717 -> 719 ;
720 [label="newbalanceDest <= -0.217\ngini = 0.434\nsamples = 121\nvalue = [124, 58]"] ;
710 -> 720 ;
721 [label="oldbalanceOrg <= -0.151\ngini = 0.496\nsamples = 38\nvalue = [32, 27]"] ;
720 -> 721 ;
722 [label="amount <= 0.347\ngini = 0.32\nsamples = 28\nvalue = [32, 8]"] ;
721 -> 722 ;
723 [label="oldbalanceOrg <= -0.16\ngini = 0.5\nsamples = 9\nvalue = [6, 6]"] ;
722 -> 723 ;
724 [label="gini = 0.0\nsamples = 4\nvalue = [6, 0]"] ;
723 -> 724 ;
725 [label="gini = 0.0\nsamples = 5\nvalue = [0, 6]"] ;
723 -> 725 ;
726 [label="amount <= 0.36\ngini = 0.133\nsamples = 19\nvalue = [26, 2]"] ;
722 -> 726 ;
727 [label="amount <= 0.359\ngini = 0.32\nsamples = 7\nvalue = [8, 2]"] ;
726 -> 727 ;
728 [label="oldbalanceOrg <= -0.152\ngini = 0.198\nsamples = 6\nvalue = [8, 1]"] ;
727 -> 728 ;
729 [label="gini = 0.0\nsamples = 5\nvalue = [8, 0]"] ;
728 -> 729 ;
730 [label="gini = 0.0\nsamples = 1\nvalue = [0, 1]"] ;
728 -> 730 ;
731 [label="gini = 0.0\nsamples = 1\nvalue = [0, 1]"] ;
727 -> 731 ;
732 [label="gini = 0.0\nsamples = 12\nvalue = [18, 0]"] ;
726 -> 732 ;
733 [label="gini = 0.0\nsamples = 10\nvalue = [0, 19]"] ;
721 -> 733 ;
734 [label="amount <= 0.458\ngini = 0.377\nsamples = 83\nvalue = [92, 31]"] ;
720 -> 734 ;
735 [label="oldbalanceOrg <= -0.141\ngini = 0.18\nsamples = 33\nvalue = [45, 5]"] ;
734 -> 735 ;
736 [label="gini = 0.0\nsamples = 27\nvalue = [40, 0]"] ;
735 -> 736 ;
737 [label="newbalanceDest <= -0.212\ngini = 0.5\nsamples = 6\nvalue = [5, 5]"] ;
735 -> 737 ;
738 [label="gini = 0.0\nsamples = 4\nvalue = [0, 5]"] ;
737 -> 738 ;
739 [label="gini = 0.0\nsamples = 2\nvalue = [5, 0]"] ;
737 -> 739 ;
740 [label="amount <= 0.467\ngini = 0.459\nsamples = 50\nvalue = [47, 26]"] ;
734 -> 740 ;
741 [label="oldbalanceOrg <= -0.15\ngini = 0.165\nsamples = 7\nvalue = [1, 10]"] ;
740 -> 741 ;
742 [label="gini = 0.0\nsamples = 1\nvalue = [1, 0]"] ;
741 -> 742 ;
743 [label="gini = 0.0\nsamples = 6\nvalue = [0, 10]"] ;
741 -> 743 ;
744 [label="oldbalanceOrg <= -0.128\ngini = 0.383\nsamples = 43\nvalue = [46, 16]"] ;
740 -> 744 ;
745 [label="gini = 0.0\nsamples = 28\nvalue = [45, 0]"] ;
744 -> 745 ;
746 [label="amount <= 0.663\ngini = 0.111\nsamples = 15\nvalue = [1, 16]"] ;
744 -> 746 ;
747 [label="gini = 0.0\nsamples = 14\nvalue = [0, 16]"] ;
746 -> 747 ;
748 [label="gini = 0.0\nsamples = 1\nvalue = [1, 0]"] ;
746 -> 748 ;
749 [label="gini = 0.0\nsamples = 26\nvalue = [45, 0]"] ;
701 -> 749 ;
750 [label="newbalanceDest <= -0.015\ngini = 0.024\nsamples = 151\nvalue = [246, 3]"] ;
700 -> 750 ;
751 [label="oldbalanceOrg <= -0.111\ngini = 0.016\nsamples = 149\nvalue = [244, 2]"] ;
750 -> 751 ;
752 [label="gini = 0.0\nsamples = 140\nvalue = [232, 0]"] ;
751 -> 752 ;
753 [label="amount <= 0.571\ngini = 0.245\nsamples = 9\nvalue = [12, 2]"] ;
751 -> 753 ;
754 [label="gini = 0.0\nsamples = 2\nvalue = [0, 2]"] ;
753 -> 754 ;
755 [label="gini = 0.0\nsamples = 7\nvalue = [12, 0]"] ;
753 -> 755 ;
756 [label="amount <= 0.561\ngini = 0.444\nsamples = 2\nvalue = [2, 1]"] ;
750 -> 756 ;
757 [label="gini = 0.0\nsamples = 1\nvalue = [0, 1]"] ;
756 -> 757 ;
758 [label="gini = 0.0\nsamples = 1\nvalue = [2, 0]"] ;
756 -> 758 ;
759 [label="oldbalanceOrg <= -0.084\ngini = 0.472\nsamples = 58\nvalue = [34, 55]"] ;
65 -> 759 ;
760 [label="TRANSFER <= 0.5\ngini = 0.475\nsamples = 28\nvalue = [22, 14]"] ;
759 -> 760 ;
761 [label="oldbalanceOrg <= -0.096\ngini = 0.42\nsamples = 16\nvalue = [6, 14]"] ;
760 -> 761 ;
762 [label="amount <= 0.624\ngini = 0.18\nsamples = 7\nvalue = [1, 9]"] ;
761 -> 762 ;
763 [label="gini = 0.0\nsamples = 6\nvalue = [0, 9]"] ;
762 -> 763 ;
764 [label="gini = 0.0\nsamples = 1\nvalue = [1, 0]"] ;
762 -> 764 ;
765 [label="oldbalanceOrg <= -0.095\ngini = 0.5\nsamples = 9\nvalue = [5, 5]"] ;
761 -> 765 ;
766 [label="gini = 0.0\nsamples = 1\nvalue = [1, 0]"] ;
765 -> 766 ;
767 [label="newbalanceDest <= -0.176\ngini = 0.494\nsamples = 8\nvalue = [4, 5]"] ;
765 -> 767 ;
768 [label="gini = 0.0\nsamples = 4\nvalue = [0, 4]"] ;
767 -> 768 ;
769 [label="amount <= 0.702\ngini = 0.32\nsamples = 4\nvalue = [4, 1]"] ;
767 -> 769 ;
770 [label="gini = 0.0\nsamples = 1\nvalue = [0, 1]"] ;
769 -> 770 ;
771 [label="gini = 0.0\nsamples = 3\nvalue = [4, 0]"] ;
769 -> 771 ;
772 [label="gini = 0.0\nsamples = 12\nvalue = [16, 0]"] ;
760 -> 772 ;
773 [label="CASH_OUT <= 0.5\ngini = 0.35\nsamples = 30\nvalue = [12, 41]"] ;
759 -> 773 ;
774 [label="oldbalanceOrg <= -0.057\ngini = 0.153\nsamples = 7\nvalue = [11, 1]"] ;
773 -> 774 ;
775 [label="gini = 0.0\nsamples = 4\nvalue = [7, 0]"] ;
774 -> 775 ;
776 [label="newbalanceDest <= -0.3\ngini = 0.32\nsamples = 3\nvalue = [4, 1]"] ;
774 -> 776 ;
777 [label="gini = 0.0\nsamples = 1\nvalue = [0, 1]"] ;
776 -> 777 ;
778 [label="gini = 0.0\nsamples = 2\nvalue = [4, 0]"] ;
776 -> 778 ;
779 [label="newbalanceDest <= -0.148\ngini = 0.048\nsamples = 23\nvalue = [1, 40]"] ;
773 -> 779 ;
780 [label="gini = 0.0\nsamples = 16\nvalue = [0, 29]"] ;
779 -> 780 ;
781 [label="oldbalanceOrg <= -0.063\ngini = 0.153\nsamples = 7\nvalue = [1, 11]"] ;
779 -> 781 ;
782 [label="gini = 0.0\nsamples = 1\nvalue = [1, 0]"] ;
781 -> 782 ;
783 [label="gini = 0.0\nsamples = 6\nvalue = [0, 11]"] ;
781 -> 783 ;
784 [label="gini = 0.0\nsamples = 29114\nvalue = [46072, 0]"] ;
64 -> 784 ;
785 [label="amount <= -0.298\ngini = 0.001\nsamples = 1547911\nvalue = [2446670, 1303]"] ;
3 -> 785 ;
786 [label="gini = 0.0\nsamples = 3\nvalue = [0, 4]"] ;
785 -> 786 ;
787 [label="CASH_OUT <= 0.5\ngini = 0.001\nsamples = 1547908\nvalue = [2446670, 1299]"] ;
785 -> 787 ;
788 [label="gini = 0.0\nsamples = 702149\nvalue = [1111643, 0]"] ;
787 -> 788 ;
789 [label="amount <= 0.663\ngini = 0.002\nsamples = 845759\nvalue = [1335027, 1299]"] ;
787 -> 789 ;
790 [label="oldbalanceOrg <= -0.25\ngini = 0.002\nsamples = 838964\nvalue = [1324482, 1174]"] ;
789 -> 790 ;
791 [label="newbalanceOrig <= -0.292\ngini = 0.001\nsamples = 761784\nvalue = [1203715, 467]"] ;
790 -> 791 ;
792 [label="newbalanceDest <= -0.288\ngini = 0.001\nsamples = 731370\nvalue = [1155786, 467]"] ;
791 -> 792 ;
793 [label="oldbalanceOrg <= -0.268\ngini = 0.003\nsamples = 46113\nvalue = [72735, 116]"] ;
792 -> 793 ;
794 [label="newbalanceDest <= -0.288\ngini = 0.002\nsamples = 44523\nvalue = [70237, 71]"] ;
793 -> 794 ;
795 [label="newbalanceDest <= -0.32\ngini = 0.002\nsamples = 44356\nvalue = [69967, 69]"] ;
794 -> 795 ;
796 [label="newbalanceDest <= -0.32\ngini = 0.004\nsamples = 7633\nvalue = [11865, 21]"] ;
795 -> 796 ;
797 [label="oldbalanceOrg <= -0.284\ngini = 0.003\nsamples = 7632\nvalue = [11865, 20]"] ;
796 -> 797 ;
798 [label="amount <= -0.296\ngini = 0.001\nsamples = 6227\nvalue = [9708, 6]"] ;
797 -> 798 ;
799 [label="oldbalanceOrg <= -0.288\ngini = 0.021\nsamples = 186\nvalue = [275, 3]"] ;
798 -> 799 ;
800 [label="newbalanceDest <= -0.333\ngini = 0.007\nsamples = 185\nvalue = [275, 1]"] ;
799 -> 800 ;
801 [label="oldbalanceOrg <= -0.289\ngini = 0.071\nsamples = 21\nvalue = [26, 1]"] ;
800 -> 801 ;
802 [label="gini = 0.0\nsamples = 20\nvalue = [26, 0]"] ;
801 -> 802 ;
803 [label="gini = 0.0\nsamples = 1\nvalue = [0, 1]"] ;
801 -> 803 ;
804 [label="gini = 0.0\nsamples = 164\nvalue = [249, 0]"] ;
800 -> 804 ;
805 [label="gini = 0.0\nsamples = 1\nvalue = [0, 2]"] ;
799 -> 805 ;
806 [label="oldbalanceDest <= -0.319\ngini = 0.001\nsamples = 6041\nvalue = [9433, 3]"] ;
798 -> 806 ;
807 [label="oldbalanceOrg <= -0.286\ngini = 0.003\nsamples = 1541\nvalue = [2392, 3]"] ;
806 -> 807 ;
808 [label="gini = 0.0\nsamples = 1174\nvalue = [1801, 0]"] ;
807 -> 808 ;
809 [label="amount <= -0.284\ngini = 0.01\nsamples = 367\nvalue = [591, 3]"] ;
807 -> 809 ;
810 [label="newbalanceDest <= -0.329\ngini = 0.375\nsamples = 3\nvalue = [1, 3]"] ;
809 -> 810 ;
811 [label="gini = 0.0\nsamples = 1\nvalue = [1, 0]"] ;
810 -> 811 ;
812 [label="gini = 0.0\nsamples = 2\nvalue = [0, 3]"] ;
810 -> 812 ;
813 [label="gini = 0.0\nsamples = 364\nvalue = [590, 0]"] ;
809 -> 813 ;
814 [label="gini = 0.0\nsamples = 4500\nvalue = [7041, 0]"] ;
806 -> 814 ;
815 [label="newbalanceDest <= -0.324\ngini = 0.013\nsamples = 1405\nvalue = [2157, 14]"] ;
797 -> 815 ;
816 [label="amount <= -0.264\ngini = 0.005\nsamples = 1142\nvalue = [1757, 4]"] ;
815 -> 816 ;
817 [label="newbalanceDest <= -0.328\ngini = 0.159\nsamples = 17\nvalue = [21, 2]"] ;
816 -> 817 ;
818 [label="gini = 0.0\nsamples = 9\nvalue = [13, 0]"] ;
817 -> 818 ;
819 [label="oldbalanceDest <= -0.323\ngini = 0.32\nsamples = 8\nvalue = [8, 2]"] ;
817 -> 819 ;
820 [label="gini = 0.0\nsamples = 1\nvalue = [0, 2]"] ;
819 -> 820 ;
821 [label="gini = 0.0\nsamples = 7\nvalue = [8, 0]"] ;
819 -> 821 ;
822 [label="oldbalanceDest <= -0.32\ngini = 0.002\nsamples = 1125\nvalue = [1736, 2]"] ;
816 -> 822 ;
823 [label="oldbalanceDest <= -0.32\ngini = 0.007\nsamples = 380\nvalue = [555, 2]"] ;
822 -> 823 ;
824 [label="oldbalanceDest <= -0.321\ngini = 0.004\nsamples = 379\nvalue = [555, 1]"] ;
823 -> 824 ;
825 [label="gini = 0.0\nsamples = 350\nvalue = [519, 0]"] ;
824 -> 825 ;
826 [label="newbalanceDest <= -0.332\ngini = 0.053\nsamples = 29\nvalue = [36, 1]"] ;
824 -> 826 ;
827 [label="oldbalanceDest <= -0.321\ngini = 0.059\nsamples = 27\nvalue = [32, 1]"] ;
826 -> 827 ;
828 [label="gini = 0.0\nsamples = 1\nvalue = [0, 1]"] ;
827 -> 828 ;
829 [label="gini = 0.0\nsamples = 26\nvalue = [32, 0]"] ;
827 -> 829 ;
830 [label="gini = 0.0\nsamples = 2\nvalue = [4, 0]"] ;
826 -> 830 ;
831 [label="gini = 0.0\nsamples = 1\nvalue = [0, 1]"] ;
823 -> 831 ;
832 [label="gini = 0.0\nsamples = 745\nvalue = [1181, 0]"] ;
822 -> 832 ;
833 [label="oldbalanceOrg <= -0.284\ngini = 0.048\nsamples = 263\nvalue = [400, 10]"] ;
815 -> 833 ;
834 [label="gini = 0.0\nsamples = 1\nvalue = [0, 1]"] ;
833 -> 834 ;
835 [label="oldbalanceDest <= -0.321\ngini = 0.043\nsamples = 262\nvalue = [400, 9]"] ;
833 -> 835 ;
836 [label="amount <= -0.249\ngini = 0.011\nsamples = 113\nvalue = [186, 1]"] ;
835 -> 836 ;
837 [label="newbalanceDest <= -0.324\ngini = 0.198\nsamples = 6\nvalue = [8, 1]"] ;
836 -> 837 ;
838 [label="gini = 0.0\nsamples = 1\nvalue = [0, 1]"] ;
837 -> 838 ;
839 [label="gini = 0.0\nsamples = 5\nvalue = [8, 0]"] ;
837 -> 839 ;
840 [label="gini = 0.0\nsamples = 107\nvalue = [178, 0]"] ;
836 -> 840 ;
841 [label="oldbalanceDest <= -0.321\ngini = 0.069\nsamples = 149\nvalue = [214, 8]"] ;
835 -> 841 ;
842 [label="gini = 0.0\nsamples = 1\nvalue = [0, 1]"] ;
841 -> 842 ;
843 [label="amount <= -0.272\ngini = 0.061\nsamples = 148\nvalue = [214, 7]"] ;
841 -> 843 ;
844 [label="gini = 0.0\nsamples = 2\nvalue = [0, 2]"] ;
843 -> 844 ;
845 [label="oldbalanceDest <= -0.317\ngini = 0.045\nsamples = 146\nvalue = [214, 5]"] ;
843 -> 845 ;
846 [label="oldbalanceDest <= -0.317\ngini = 0.08\nsamples = 81\nvalue = [115, 5]"] ;
845 -> 846 ;
847 [label="oldbalanceOrg <= -0.28\ngini = 0.065\nsamples = 80\nvalue = [115, 4]"] ;
846 -> 847 ;
848 [label="amount <= -0.265\ngini = 0.04\nsamples = 64\nvalue = [95, 2]"] ;
847 -> 848 ;
849 [label="amount <= -0.266\ngini = 0.5\nsamples = 3\nvalue = [2, 2]"] ;
848 -> 849 ;
850 [label="gini = 0.0\nsamples = 2\nvalue = [2, 0]"] ;
849 -> 850 ;
851 [label="gini = 0.0\nsamples = 1\nvalue = [0, 2]"] ;
849 -> 851 ;
852 [label="gini = 0.0\nsamples = 61\nvalue = [93, 0]"] ;
848 -> 852 ;
853 [label="oldbalanceOrg <= -0.28\ngini = 0.165\nsamples = 16\nvalue = [20, 2]"] ;
847 -> 853 ;
854 [label="gini = 0.0\nsamples = 1\nvalue = [0, 1]"] ;
853 -> 854 ;
855 [label="oldbalanceOrg <= -0.279\ngini = 0.091\nsamples = 15\nvalue = [20, 1]"] ;
853 -> 855 ;
856 [label="oldbalanceDest <= -0.32\ngini = 0.375\nsamples = 4\nvalue = [3, 1]"] ;
855 -> 856 ;
857 [label="amount <= -0.248\ngini = 0.5\nsamples = 2\nvalue = [1, 1]"] ;
856 -> 857 ;
858 [label="gini = 0.0\nsamples = 1\nvalue = [0, 1]"] ;
857 -> 858 ;
859 [label="gini = 0.0\nsamples = 1\nvalue = [1, 0]"] ;
857 -> 859 ;
860 [label="gini = 0.0\nsamples = 2\nvalue = [2, 0]"] ;
856 -> 860 ;
861 [label="gini = 0.0\nsamples = 11\nvalue = [17, 0]"] ;
855 -> 861 ;
862 [label="gini = 0.0\nsamples = 1\nvalue = [0, 1]"] ;
846 -> 862 ;
863 [label="gini = 0.0\nsamples = 65\nvalue = [99, 0]"] ;
845 -> 863 ;
864 [label="gini = 0.0\nsamples = 1\nvalue = [0, 1]"] ;
796 -> 864 ;
865 [label="oldbalanceDest <= -0.29\ngini = 0.002\nsamples = 36723\nvalue = [58102, 48]"] ;
795 -> 865 ;
866 [label="oldbalanceOrg <= -0.278\ngini = 0.001\nsamples = 31450\nvalue = [49787, 29]"] ;
865 -> 866 ;
867 [label="oldbalanceOrg <= -0.278\ngini = 0.0\nsamples = 28835\nvalue = [45588, 7]"] ;
866 -> 867 ;
868 [label="oldbalanceOrg <= -0.288\ngini = 0.0\nsamples = 28056\nvalue = [44396, 5]"] ;
867 -> 868 ;
869 [label="gini = 0.0\nsamples = 18865\nvalue = [29889, 0]"] ;
868 -> 869 ;
870 [label="newbalanceDest <= -0.303\ngini = 0.001\nsamples = 9191\nvalue = [14507, 5]"] ;
868 -> 870 ;
871 [label="oldbalanceOrg <= -0.288\ngini = 0.001\nsamples = 4294\nvalue = [6765, 4]"] ;
870 -> 871 ;
872 [label="gini = 0.0\nsamples = 1\nvalue = [0, 1]"] ;
871 -> 872 ;
873 [label="oldbalanceDest <= -0.299\ngini = 0.001\nsamples = 4293\nvalue = [6765, 3]"] ;
871 -> 873 ;
874 [label="newbalanceDest <= -0.312\ngini = 0.001\nsamples = 4171\nvalue = [6582, 2]"] ;
873 -> 874 ;
875 [label="amount <= -0.28\ngini = 0.002\nsamples = 1595\nvalue = [2511, 2]"] ;
874 -> 875 ;
876 [label="oldbalanceDest <= -0.304\ngini = 0.044\nsamples = 32\nvalue = [43, 1]"] ;
875 -> 876 ;
877 [label="gini = 0.0\nsamples = 27\nvalue = [38, 0]"] ;
876 -> 877 ;
878 [label="amount <= -0.283\ngini = 0.278\nsamples = 5\nvalue = [5, 1]"] ;
876 -> 878 ;
879 [label="gini = 0.0\nsamples = 4\nvalue = [5, 0]"] ;
878 -> 879 ;
880 [label="gini = 0.0\nsamples = 1\nvalue = [0, 1]"] ;
878 -> 880 ;
881 [label="oldbalanceOrg <= -0.282\ngini = 0.001\nsamples = 1563\nvalue = [2468, 1]"] ;
875 -> 881 ;
882 [label="gini = 0.0\nsamples = 1092\nvalue = [1720, 0]"] ;
881 -> 882 ;
883 [label="oldbalanceDest <= -0.312\ngini = 0.003\nsamples = 471\nvalue = [748, 1]"] ;
881 -> 883 ;
884 [label="gini = 0.0\nsamples = 429\nvalue = [691, 0]"] ;
883 -> 884 ;
885 [label="oldbalanceOrg <= -0.282\ngini = 0.034\nsamples = 42\nvalue = [57, 1]"] ;
883 -> 885 ;
886 [label="gini = 0.0\nsamples = 1\nvalue = [0, 1]"] ;
885 -> 886 ;
887 [label="gini = 0.0\nsamples = 41\nvalue = [57, 0]"] ;
885 -> 887 ;
888 [label="gini = 0.0\nsamples = 2576\nvalue = [4071, 0]"] ;
874 -> 888 ;
889 [label="oldbalanceOrg <= -0.282\ngini = 0.011\nsamples = 122\nvalue = [183, 1]"] ;
873 -> 889 ;
890 [label="gini = 0.0\nsamples = 108\nvalue = [161, 0]"] ;
889 -> 890 ;
891 [label="oldbalanceOrg <= -0.282\ngini = 0.083\nsamples = 14\nvalue = [22, 1]"] ;
889 -> 891 ;
892 [label="gini = 0.0\nsamples = 1\nvalue = [0, 1]"] ;
891 -> 892 ;
893 [label="gini = 0.0\nsamples = 13\nvalue = [22, 0]"] ;
891 -> 893 ;
894 [label="newbalanceDest <= -0.294\ngini = 0.0\nsamples = 4897\nvalue = [7742, 1]"] ;
870 -> 894 ;
895 [label="gini = 0.0\nsamples = 2883\nvalue = [4532, 0]"] ;
894 -> 895 ;
896 [label="oldbalanceDest <= -0.323\ngini = 0.001\nsamples = 2014\nvalue = [3210, 1]"] ;
894 -> 896 ;
897 [label="newbalanceDest <= -0.294\ngini = 0.012\nsamples = 91\nvalue = [158, 1]"] ;
896 -> 897 ;
898 [label="gini = 0.0\nsamples = 1\nvalue = [0, 1]"] ;
897 -> 898 ;
899 [label="gini = 0.0\nsamples = 90\nvalue = [158, 0]"] ;
897 -> 899 ;
900 [label="gini = 0.0\nsamples = 1923\nvalue = [3052, 0]"] ;
896 -> 900 ;
901 [label="oldbalanceOrg <= -0.278\ngini = 0.003\nsamples = 779\nvalue = [1192, 2]"] ;
867 -> 901 ;
902 [label="amount <= -0.234\ngini = 0.444\nsamples = 2\nvalue = [1, 2]"] ;
901 -> 902 ;
903 [label="gini = 0.0\nsamples = 1\nvalue = [0, 2]"] ;
902 -> 903 ;
904 [label="gini = 0.0\nsamples = 1\nvalue = [1, 0]"] ;
902 -> 904 ;
905 [label="gini = 0.0\nsamples = 777\nvalue = [1191, 0]"] ;
901 -> 905 ;
906 [label="newbalanceDest <= -0.316\ngini = 0.01\nsamples = 2615\nvalue = [4199, 22]"] ;
866 -> 906 ;
907 [label="oldbalanceDest <= -0.317\ngini = 0.041\nsamples = 130\nvalue = [188, 4]"] ;
906 -> 907 ;
908 [label="gini = 0.0\nsamples = 104\nvalue = [155, 0]"] ;
907 -> 908 ;
909 [label="amount <= -0.226\ngini = 0.193\nsamples = 26\nvalue = [33, 4]"] ;
907 -> 909 ;
910 [label="oldbalanceOrg <= -0.276\ngini = 0.444\nsamples = 5\nvalue = [2, 4]"] ;
909 -> 910 ;
911 [label="gini = 0.0\nsamples = 2\nvalue = [2, 0]"] ;
910 -> 911 ;
912 [label="gini = 0.0\nsamples = 3\nvalue = [0, 4]"] ;
910 -> 912 ;
913 [label="gini = 0.0\nsamples = 21\nvalue = [31, 0]"] ;
909 -> 913 ;
914 [label="newbalanceDest <= -0.296\ngini = 0.009\nsamples = 2485\nvalue = [4011, 18]"] ;
906 -> 914 ;
915 [label="amount <= -0.243\ngini = 0.013\nsamples = 1567\nvalue = [2533, 17]"] ;
914 -> 915 ;
916 [label="gini = 0.0\nsamples = 2\nvalue = [0, 4]"] ;
915 -> 916 ;
917 [label="newbalanceDest <= -0.296\ngini = 0.01\nsamples = 1565\nvalue = [2533, 13]"] ;
915 -> 917 ;
918 [label="amount <= -0.21\ngini = 0.008\nsamples = 1564\nvalue = [2533, 10]"] ;
917 -> 918 ;
919 [label="oldbalanceOrg <= -0.271\ngini = 0.065\nsamples = 189\nvalue = [287, 10]"] ;
918 -> 919 ;
920 [label="amount <= -0.213\ngini = 0.053\nsamples = 188\nvalue = [287, 8]"] ;
919 -> 920 ;
921 [label="oldbalanceDest <= -0.305\ngini = 0.064\nsamples = 155\nvalue = [233, 8]"] ;
920 -> 921 ;
922 [label="newbalanceDest <= -0.303\ngini = 0.099\nsamples = 87\nvalue = [127, 7]"] ;
921 -> 922 ;
923 [label="newbalanceDest <= -0.31\ngini = 0.073\nsamples = 86\nvalue = [127, 5]"] ;
922 -> 923 ;
924 [label="gini = 0.0\nsamples = 34\nvalue = [53, 0]"] ;
923 -> 924 ;
925 [label="amount <= -0.219\ngini = 0.119\nsamples = 52\nvalue = [74, 5]"] ;
923 -> 925 ;
926 [label="amount <= -0.219\ngini = 0.177\nsamples = 33\nvalue = [46, 5]"] ;
925 -> 926 ;
927 [label="newbalanceDest <= -0.305\ngini = 0.115\nsamples = 32\nvalue = [46, 3]"] ;
926 -> 927 ;
928 [label="oldbalanceDest <= -0.309\ngini = 0.08\nsamples = 31\nvalue = [46, 2]"] ;
927 -> 928 ;
929 [label="gini = 0.0\nsamples = 15\nvalue = [23, 0]"] ;
928 -> 929 ;
930 [label="oldbalanceDest <= -0.308\ngini = 0.147\nsamples = 16\nvalue = [23, 2]"] ;
928 -> 930 ;
931 [label="gini = 0.0\nsamples = 2\nvalue = [0, 2]"] ;
930 -> 931 ;
932 [label="gini = 0.0\nsamples = 14\nvalue = [23, 0]"] ;
930 -> 932 ;
933 [label="gini = 0.0\nsamples = 1\nvalue = [0, 1]"] ;
927 -> 933 ;
934 [label="gini = 0.0\nsamples = 1\nvalue = [0, 2]"] ;
926 -> 934 ;
935 [label="gini = 0.0\nsamples = 19\nvalue = [28, 0]"] ;
925 -> 935 ;
936 [label="gini = 0.0\nsamples = 1\nvalue = [0, 2]"] ;
922 -> 936 ;
937 [label="oldbalanceOrg <= -0.272\ngini = 0.019\nsamples = 68\nvalue = [106, 1]"] ;
921 -> 937 ;
938 [label="gini = 0.0\nsamples = 67\nvalue = [106, 0]"] ;
937 -> 938 ;
939 [label="gini = 0.0\nsamples = 1\nvalue = [0, 1]"] ;
937 -> 939 ;
940 [label="gini = 0.0\nsamples = 33\nvalue = [54, 0]"] ;
920 -> 940 ;
941 [label="gini = 0.0\nsamples = 1\nvalue = [0, 2]"] ;
919 -> 941 ;
942 [label="gini = 0.0\nsamples = 1375\nvalue = [2246, 0]"] ;
918 -> 942 ;
943 [label="gini = 0.0\nsamples = 1\nvalue = [0, 3]"] ;
917 -> 943 ;
944 [label="amount <= -0.203\ngini = 0.001\nsamples = 918\nvalue = [1478, 1]"] ;
914 -> 944 ;
945 [label="amount <= -0.204\ngini = 0.019\nsamples = 66\nvalue = [101, 1]"] ;
944 -> 945 ;
946 [label="gini = 0.0\nsamples = 65\nvalue = [101, 0]"] ;
945 -> 946 ;
947 [label="gini = 0.0\nsamples = 1\nvalue = [0, 1]"] ;
945 -> 947 ;
948 [label="gini = 0.0\nsamples = 852\nvalue = [1377, 0]"] ;
944 -> 948 ;
949 [label="oldbalanceDest <= -0.29\ngini = 0.005\nsamples = 5273\nvalue = [8315, 19]"] ;
865 -> 949 ;
950 [label="gini = 0.0\nsamples = 1\nvalue = [0, 1]"] ;
949 -> 950 ;
951 [label="oldbalanceOrg <= -0.283\ngini = 0.004\nsamples = 5272\nvalue = [8315, 18]"] ;
949 -> 951 ;
952 [label="oldbalanceOrg <= -0.286\ngini = 0.001\nsamples = 4951\nvalue = [7822, 2]"] ;
951 -> 952 ;
953 [label="gini = 0.0\nsamples = 4614\nvalue = [7291, 0]"] ;
952 -> 953 ;
954 [label="amount <= -0.285\ngini = 0.007\nsamples = 337\nvalue = [531, 2]"] ;
952 -> 954 ;
955 [label="gini = 0.0\nsamples = 1\nvalue = [0, 2]"] ;
954 -> 955 ;
956 [label="gini = 0.0\nsamples = 336\nvalue = [531, 0]"] ;
954 -> 956 ;
957 [label="amount <= -0.265\ngini = 0.061\nsamples = 321\nvalue = [493, 16]"] ;
951 -> 957 ;
958 [label="gini = 0.0\nsamples = 2\nvalue = [0, 6]"] ;
957 -> 958 ;
959 [label="amount <= -0.261\ngini = 0.039\nsamples = 319\nvalue = [493, 10]"] ;
957 -> 959 ;
960 [label="amount <= -0.262\ngini = 0.305\nsamples = 8\nvalue = [13, 3]"] ;
959 -> 960 ;
961 [label="gini = 0.0\nsamples = 7\nvalue = [13, 0]"] ;
960 -> 961 ;
962 [label="gini = 0.0\nsamples = 1\nvalue = [0, 3]"] ;
960 -> 962 ;
963 [label="oldbalanceDest <= -0.29\ngini = 0.028\nsamples = 311\nvalue = [480, 7]"] ;
959 -> 963 ;
964 [label="newbalanceDest <= -0.291\ngini = 0.5\nsamples = 2\nvalue = [1, 1]"] ;
963 -> 964 ;
965 [label="gini = 0.0\nsamples = 1\nvalue = [1, 0]"] ;
964 -> 965 ;
966 [label="gini = 0.0\nsamples = 1\nvalue = [0, 1]"] ;
964 -> 966 ;
967 [label="amount <= -0.234\ngini = 0.024\nsamples = 309\nvalue = [479, 6]"] ;
963 -> 967 ;
968 [label="amount <= -0.235\ngini = 0.084\nsamples = 89\nvalue = [130, 6]"] ;
967 -> 968 ;
969 [label="oldbalanceDest <= -0.287\ngini = 0.044\nsamples = 88\nvalue = [130, 3]"] ;
968 -> 969 ;
970 [label="oldbalanceDest <= -0.287\ngini = 0.098\nsamples = 38\nvalue = [55, 3]"] ;
969 -> 970 ;
971 [label="amount <= -0.237\ngini = 0.035\nsamples = 37\nvalue = [55, 1]"] ;
970 -> 971 ;
972 [label="gini = 0.0\nsamples = 32\nvalue = [47, 0]"] ;
971 -> 972 ;
973 [label="amount <= -0.236\ngini = 0.198\nsamples = 5\nvalue = [8, 1]"] ;
971 -> 973 ;
974 [label="gini = 0.0\nsamples = 1\nvalue = [0, 1]"] ;
973 -> 974 ;
975 [label="gini = 0.0\nsamples = 4\nvalue = [8, 0]"] ;
973 -> 975 ;
976 [label="gini = 0.0\nsamples = 1\nvalue = [0, 2]"] ;
970 -> 976 ;
977 [label="gini = 0.0\nsamples = 50\nvalue = [75, 0]"] ;
969 -> 977 ;
978 [label="gini = 0.0\nsamples = 1\nvalue = [0, 3]"] ;
968 -> 978 ;
979 [label="gini = 0.0\nsamples = 220\nvalue = [349, 0]"] ;
967 -> 979 ;
980 [label="amount <= -0.267\ngini = 0.015\nsamples = 167\nvalue = [270, 2]"] ;
794 -> 980 ;
981 [label="oldbalanceOrg <= -0.284\ngini = 0.198\nsamples = 14\nvalue = [16, 2]"] ;
980 -> 981 ;
982 [label="gini = 0.0\nsamples = 13\nvalue = [16, 0]"] ;
981 -> 982 ;
983 [label="gini = 0.0\nsamples = 1\nvalue = [0, 2]"] ;
981 -> 983 ;
984 [label="gini = 0.0\nsamples = 153\nvalue = [254, 0]"] ;
980 -> 984 ;
985 [label="newbalanceDest <= -0.288\ngini = 0.035\nsamples = 1590\nvalue = [2498, 45]"] ;
793 -> 985 ;
986 [label="oldbalanceOrg <= -0.268\ngini = 0.034\nsamples = 1589\nvalue = [2498, 44]"] ;
985 -> 986 ;
987 [label="amount <= -0.199\ngini = 0.375\nsamples = 12\nvalue = [15, 5]"] ;
986 -> 987 ;
988 [label="gini = 0.0\nsamples = 2\nvalue = [0, 5]"] ;
987 -> 988 ;
989 [label="gini = 0.0\nsamples = 10\nvalue = [15, 0]"] ;
987 -> 989 ;
990 [label="oldbalanceOrg <= -0.265\ngini = 0.03\nsamples = 1577\nvalue = [2483, 39]"] ;
986 -> 990 ;
991 [label="oldbalanceDest <= -0.316\ngini = 0.01\nsamples = 503\nvalue = [795, 4]"] ;
990 -> 991 ;
992 [label="oldbalanceDest <= -0.316\ngini = 0.016\nsamples = 239\nvalue = [372, 3]"] ;
991 -> 992 ;
993 [label="oldbalanceDest <= -0.322\ngini = 0.005\nsamples = 237\nvalue = [372, 1]"] ;
992 -> 993 ;
994 [label="amount <= -0.192\ngini = 0.014\nsamples = 85\nvalue = [142, 1]"] ;
993 -> 994 ;
995 [label="oldbalanceDest <= -0.322\ngini = 0.375\nsamples = 3\nvalue = [3, 1]"] ;
994 -> 995 ;
996 [label="gini = 0.0\nsamples = 2\nvalue = [3, 0]"] ;
995 -> 996 ;
997 [label="gini = 0.0\nsamples = 1\nvalue = [0, 1]"] ;
995 -> 997 ;
998 [label="gini = 0.0\nsamples = 82\nvalue = [139, 0]"] ;
994 -> 998 ;
999 [label="gini = 0.0\nsamples = 152\nvalue = [230, 0]"] ;
993 -> 999 ;
1000 [label="gini = 0.0\nsamples = 2\nvalue = [0, 2]"] ;
992 -> 1000 ;
1001 [label="newbalanceDest <= -0.289\ngini = 0.005\nsamples = 264\nvalue = [423, 1]"] ;
991 -> 1001 ;
1002 [label="gini = 0.0\nsamples = 256\nvalue = [414, 0]"] ;
1001 -> 1002 ;
1003 [label="amount <= -0.174\ngini = 0.18\nsamples = 8\nvalue = [9, 1]"] ;
1001 -> 1003 ;
1004 [label="gini = 0.0\nsamples = 1\nvalue = [0, 1]"] ;
1003 -> 1004 ;
1005 [label="gini = 0.0\nsamples = 7\nvalue = [9, 0]"] ;
1003 -> 1005 ;
1006 [label="newbalanceDest <= -0.312\ngini = 0.04\nsamples = 1074\nvalue = [1688, 35]"] ;
990 -> 1006 ;
1007 [label="amount <= -0.148\ngini = 0.01\nsamples = 245\nvalue = [377, 2]"] ;
1006 -> 1007 ;
1008 [label="amount <= -0.15\ngini = 0.198\nsamples = 12\nvalue = [16, 2]"] ;
1007 -> 1008 ;
1009 [label="amount <= -0.159\ngini = 0.111\nsamples = 11\nvalue = [16, 1]"] ;
1008 -> 1009 ;
1010 [label="gini = 0.0\nsamples = 7\nvalue = [12, 0]"] ;
1009 -> 1010 ;
1011 [label="amount <= -0.155\ngini = 0.32\nsamples = 4\nvalue = [4, 1]"] ;
1009 -> 1011 ;
1012 [label="gini = 0.0\nsamples = 1\nvalue = [0, 1]"] ;
1011 -> 1012 ;
1013 [label="gini = 0.0\nsamples = 3\nvalue = [4, 0]"] ;
1011 -> 1013 ;
1014 [label="gini = 0.0\nsamples = 1\nvalue = [0, 1]"] ;
1008 -> 1014 ;
1015 [label="gini = 0.0\nsamples = 233\nvalue = [361, 0]"] ;
1007 -> 1015 ;
1016 [label="oldbalanceDest <= -0.31\ngini = 0.048\nsamples = 829\nvalue = [1311, 33]"] ;
1006 -> 1016 ;
1017 [label="oldbalanceOrg <= -0.265\ngini = 0.026\nsamples = 649\nvalue = [1047, 14]"] ;
1016 -> 1017 ;
1018 [label="gini = 0.0\nsamples = 1\nvalue = [0, 1]"] ;
1017 -> 1018 ;
1019 [label="oldbalanceOrg <= -0.252\ngini = 0.024\nsamples = 648\nvalue = [1047, 13]"] ;
1017 -> 1019 ;
1020 [label="amount <= -0.172\ngini = 0.02\nsamples = 599\nvalue = [970, 10]"] ;
1019 -> 1020 ;
1021 [label="gini = 0.0\nsamples = 3\nvalue = [0, 5]"] ;
1020 -> 1021 ;
1022 [label="amount <= -0.129\ngini = 0.01\nsamples = 596\nvalue = [970, 5]"] ;
1020 -> 1022 ;
1023 [label="amount <= -0.129\ngini = 0.048\nsamples = 125\nvalue = [198, 5]"] ;
1022 -> 1023 ;
1024 [label="newbalanceDest <= -0.309\ngini = 0.029\nsamples = 124\nvalue = [198, 3]"] ;
1023 -> 1024 ;
1025 [label="oldbalanceOrg <= -0.261\ngini = 0.111\nsamples = 10\nvalue = [16, 1]"] ;
1024 -> 1025 ;
1026 [label="gini = 0.0\nsamples = 9\nvalue = [16, 0]"] ;
1025 -> 1026 ;
1027 [label="gini = 0.0\nsamples = 1\nvalue = [0, 1]"] ;
1025 -> 1027 ;
1028 [label="oldbalanceDest <= -0.312\ngini = 0.022\nsamples = 114\nvalue = [182, 2]"] ;
1024 -> 1028 ;
1029 [label="newbalanceDest <= -0.306\ngini = 0.012\nsamples = 102\nvalue = [164, 1]"] ;
1028 -> 1029 ;
1030 [label="oldbalanceDest <= -0.322\ngini = 0.051\nsamples = 31\nvalue = [37, 1]"] ;
1029 -> 1030 ;
1031 [label="gini = 0.0\nsamples = 15\nvalue = [19, 0]"] ;
1030 -> 1031 ;
1032 [label="newbalanceDest <= -0.306\ngini = 0.1\nsamples = 16\nvalue = [18, 1]"] ;
1030 -> 1032 ;
1033 [label="gini = 0.0\nsamples = 15\nvalue = [18, 0]"] ;
1032 -> 1033 ;
1034 [label="gini = 0.0\nsamples = 1\nvalue = [0, 1]"] ;
1032 -> 1034 ;
1035 [label="gini = 0.0\nsamples = 71\nvalue = [127, 0]"] ;
1029 -> 1035 ;
1036 [label="oldbalanceDest <= -0.312\ngini = 0.1\nsamples = 12\nvalue = [18, 1]"] ;
1028 -> 1036 ;
1037 [label="gini = 0.0\nsamples = 1\nvalue = [0, 1]"] ;
1036 -> 1037 ;
1038 [label="gini = 0.0\nsamples = 11\nvalue = [18, 0]"] ;
1036 -> 1038 ;
1039 [label="gini = 0.0\nsamples = 1\nvalue = [0, 2]"] ;
1023 -> 1039 ;
1040 [label="gini = 0.0\nsamples = 471\nvalue = [772, 0]"] ;
1022 -> 1040 ;
1041 [label="oldbalanceOrg <= -0.252\ngini = 0.072\nsamples = 49\nvalue = [77, 3]"] ;
1019 -> 1041 ;
1042 [label="gini = 0.0\nsamples = 1\nvalue = [0, 2]"] ;
1041 -> 1042 ;
1043 [label="oldbalanceDest <= -0.315\ngini = 0.025\nsamples = 48\nvalue = [77, 1]"] ;
1041 -> 1043 ;
1044 [label="gini = 0.0\nsamples = 36\nvalue = [59, 0]"] ;
1043 -> 1044 ;
1045 [label="amount <= -0.118\ngini = 0.1\nsamples = 12\nvalue = [18, 1]"] ;
1043 -> 1045 ;
1046 [label="gini = 0.0\nsamples = 1\nvalue = [0, 1]"] ;
1045 -> 1046 ;
1047 [label="gini = 0.0\nsamples = 11\nvalue = [18, 0]"] ;
1045 -> 1047 ;
1048 [label="newbalanceDest <= -0.299\ngini = 0.125\nsamples = 180\nvalue = [264, 19]"] ;
1016 -> 1048 ;
1049 [label="gini = 0.0\nsamples = 37\nvalue = [58, 0]"] ;
1048 -> 1049 ;
1050 [label="oldbalanceOrg <= -0.264\ngini = 0.155\nsamples = 143\nvalue = [206, 19]"] ;
1048 -> 1050 ;
1051 [label="oldbalanceDest <= -0.303\ngini = 0.384\nsamples = 18\nvalue = [20, 7]"] ;
1050 -> 1051 ;
1052 [label="gini = 0.0\nsamples = 13\nvalue = [17, 0]"] ;
1051 -> 1052 ;
1053 [label="oldbalanceDest <= -0.285\ngini = 0.42\nsamples = 5\nvalue = [3, 7]"] ;
1051 -> 1053 ;
1054 [label="gini = 0.0\nsamples = 3\nvalue = [0, 7]"] ;
1053 -> 1054 ;
1055 [label="gini = 0.0\nsamples = 2\nvalue = [3, 0]"] ;
1053 -> 1055 ;
1056 [label="oldbalanceDest <= -0.31\ngini = 0.114\nsamples = 125\nvalue = [186, 12]"] ;
1050 -> 1056 ;
1057 [label="gini = 0.0\nsamples = 1\nvalue = [0, 3]"] ;
1056 -> 1057 ;
1058 [label="oldbalanceOrg <= -0.258\ngini = 0.088\nsamples = 124\nvalue = [186, 9]"] ;
1056 -> 1058 ;
1059 [label="newbalanceDest <= -0.298\ngini = 0.143\nsamples = 61\nvalue = [95, 8]"] ;
1058 -> 1059 ;
1060 [label="gini = 0.0\nsamples = 2\nvalue = [0, 4]"] ;
1059 -> 1060 ;
1061 [label="newbalanceDest <= -0.291\ngini = 0.078\nsamples = 59\nvalue = [95, 4]"] ;
1059 -> 1061 ;
1062 [label="newbalanceDest <= -0.291\ngini = 0.104\nsamples = 41\nvalue = [69, 4]"] ;
1061 -> 1062 ;
1063 [label="amount <= -0.161\ngini = 0.055\nsamples = 40\nvalue = [69, 2]"] ;
1062 -> 1063 ;
1064 [label="oldbalanceDest <= -0.305\ngini = 0.18\nsamples = 9\nvalue = [18, 2]"] ;
1063 -> 1064 ;
1065 [label="newbalanceDest <= -0.296\ngini = 0.408\nsamples = 3\nvalue = [5, 2]"] ;
1064 -> 1065 ;
1066 [label="gini = 0.0\nsamples = 2\nvalue = [5, 0]"] ;
1065 -> 1066 ;
1067 [label="gini = 0.0\nsamples = 1\nvalue = [0, 2]"] ;
1065 -> 1067 ;
1068 [label="gini = 0.0\nsamples = 6\nvalue = [13, 0]"] ;
1064 -> 1068 ;
1069 [label="gini = 0.0\nsamples = 31\nvalue = [51, 0]"] ;
1063 -> 1069 ;
1070 [label="gini = 0.0\nsamples = 1\nvalue = [0, 2]"] ;
1062 -> 1070 ;
1071 [label="gini = 0.0\nsamples = 18\nvalue = [26, 0]"] ;
1061 -> 1071 ;
1072 [label="amount <= -0.132\ngini = 0.022\nsamples = 63\nvalue = [91, 1]"] ;
1058 -> 1072 ;
1073 [label="oldbalanceDest <= -0.31\ngini = 0.142\nsamples = 11\nvalue = [12, 1]"] ;
1072 -> 1073 ;
1074 [label="newbalanceDest <= -0.294\ngini = 0.5\nsamples = 2\nvalue = [1, 1]"] ;
1073 -> 1074 ;
1075 [label="gini = 0.0\nsamples = 1\nvalue = [1, 0]"] ;
1074 -> 1075 ;
1076 [label="gini = 0.0\nsamples = 1\nvalue = [0, 1]"] ;
1074 -> 1076 ;
1077 [label="gini = 0.0\nsamples = 9\nvalue = [11, 0]"] ;
1073 -> 1077 ;
1078 [label="gini = 0.0\nsamples = 52\nvalue = [79, 0]"] ;
1072 -> 1078 ;
1079 [label="gini = 0.0\nsamples = 1\nvalue = [0, 1]"] ;
985 -> 1079 ;
1080 [label="oldbalanceOrg <= -0.27\ngini = 0.001\nsamples = 685257\nvalue = [1083051, 351]"] ;
792 -> 1080 ;
1081 [label="oldbalanceOrg <= -0.288\ngini = 0.0\nsamples = 648044\nvalue = [1024272, 190]"] ;
1080 -> 1081 ;
1082 [label="newbalanceDest <= -0.281\ngini = 0.0\nsamples = 471818\nvalue = [746126, 26]"] ;
1081 -> 1082 ;
1083 [label="newbalanceDest <= -0.281\ngini = 0.001\nsamples = 7343\nvalue = [11616, 6]"] ;
1082 -> 1083 ;
1084 [label="oldbalanceDest <= -0.32\ngini = 0.001\nsamples = 7342\nvalue = [11616, 4]"] ;
1083 -> 1084 ;
1085 [label="newbalanceDest <= -0.283\ngini = 0.03\nsamples = 123\nvalue = [197, 3]"] ;
1084 -> 1085 ;
1086 [label="gini = 0.0\nsamples = 77\nvalue = [122, 0]"] ;
1085 -> 1086 ;
1087 [label="oldbalanceDest <= -0.32\ngini = 0.074\nsamples = 46\nvalue = [75, 3]"] ;
1085 -> 1087 ;
1088 [label="gini = 0.0\nsamples = 45\nvalue = [75, 0]"] ;
1087 -> 1088 ;
1089 [label="gini = 0.0\nsamples = 1\nvalue = [0, 3]"] ;
1087 -> 1089 ;
1090 [label="oldbalanceOrg <= -0.289\ngini = 0.0\nsamples = 7219\nvalue = [11419, 1]"] ;
1084 -> 1090 ;
1091 [label="gini = 0.0\nsamples = 6408\nvalue = [10154, 0]"] ;
1090 -> 1091 ;
1092 [label="oldbalanceDest <= -0.317\ngini = 0.002\nsamples = 811\nvalue = [1265, 1]"] ;
1090 -> 1092 ;
1093 [label="newbalanceDest <= -0.287\ngini = 0.018\nsamples = 77\nvalue = [107, 1]"] ;
1092 -> 1093 ;
1094 [label="oldbalanceDest <= -0.317\ngini = 0.077\nsamples = 17\nvalue = [24, 1]"] ;
1093 -> 1094 ;
1095 [label="gini = 0.0\nsamples = 16\nvalue = [24, 0]"] ;
1094 -> 1095 ;
1096 [label="gini = 0.0\nsamples = 1\nvalue = [0, 1]"] ;
1094 -> 1096 ;
1097 [label="gini = 0.0\nsamples = 60\nvalue = [83, 0]"] ;
1093 -> 1097 ;
1098 [label="gini = 0.0\nsamples = 734\nvalue = [1158, 0]"] ;
1092 -> 1098 ;
1099 [label="gini = 0.0\nsamples = 1\nvalue = [0, 2]"] ;
1083 -> 1099 ;
1100 [label="oldbalanceOrg <= -0.289\ngini = 0.0\nsamples = 464475\nvalue = [734510, 20]"] ;
1082 -> 1100 ;
1101 [label="oldbalanceDest <= -0.314\ngini = 0.0\nsamples = 427115\nvalue = [675658, 5]"] ;
1100 -> 1101 ;
1102 [label="amount <= 0.091\ngini = 0.006\nsamples = 389\nvalue = [648, 2]"] ;
1101 -> 1102 ;
1103 [label="oldbalanceOrg <= -0.289\ngini = 0.012\nsamples = 186\nvalue = [317, 2]"] ;
1102 -> 1103 ;
1104 [label="newbalanceDest <= -0.26\ngini = 0.024\nsamples = 96\nvalue = [160, 2]"] ;
1103 -> 1104 ;
1105 [label="oldbalanceDest <= -0.314\ngini = 0.063\nsamples = 35\nvalue = [59, 2]"] ;
1104 -> 1105 ;
1106 [label="gini = 0.0\nsamples = 34\nvalue = [59, 0]"] ;
1105 -> 1106 ;
1107 [label="gini = 0.0\nsamples = 1\nvalue = [0, 2]"] ;
1105 -> 1107 ;
1108 [label="gini = 0.0\nsamples = 61\nvalue = [101, 0]"] ;
1104 -> 1108 ;
1109 [label="gini = 0.0\nsamples = 90\nvalue = [157, 0]"] ;
1103 -> 1109 ;
1110 [label="gini = 0.0\nsamples = 203\nvalue = [331, 0]"] ;
1102 -> 1110 ;
1111 [label="oldbalanceDest <= -0.143\ngini = 0.0\nsamples = 426726\nvalue = [675010, 3]"] ;
1101 -> 1111 ;
1112 [label="oldbalanceOrg <= -0.289\ngini = 0.0\nsamples = 158849\nvalue = [250882, 3]"] ;
1111 -> 1112 ;
1113 [label="amount <= -0.259\ngini = 0.0\nsamples = 156393\nvalue = [246948, 3]"] ;
1112 -> 1113 ;
1114 [label="newbalanceDest <= -0.22\ngini = 0.0\nsamples = 10130\nvalue = [15945, 2]"] ;
1113 -> 1114 ;
1115 [label="gini = 0.0\nsamples = 6390\nvalue = [10040, 0]"] ;
1114 -> 1115 ;
1116 [label="oldbalanceDest <= -0.208\ngini = 0.001\nsamples = 3740\nvalue = [5905, 2]"] ;
1114 -> 1116 ;
1117 [label="amount <= -0.259\ngini = 0.009\nsamples = 295\nvalue = [444, 2]"] ;
1116 -> 1117 ;
1118 [label="gini = 0.0\nsamples = 294\nvalue = [444, 0]"] ;
1117 -> 1118 ;
1119 [label="gini = 0.0\nsamples = 1\nvalue = [0, 2]"] ;
1117 -> 1119 ;
1120 [label="gini = 0.0\nsamples = 3445\nvalue = [5461, 0]"] ;
1116 -> 1120 ;
1121 [label="oldbalanceDest <= -0.143\ngini = 0.0\nsamples = 146263\nvalue = [231003, 1]"] ;
1113 -> 1121 ;
1122 [label="gini = 0.0\nsamples = 146262\nvalue = [231003, 0]"] ;
1121 -> 1122 ;
1123 [label="gini = 0.0\nsamples = 1\nvalue = [0, 1]"] ;
1121 -> 1123 ;
1124 [label="gini = 0.0\nsamples = 2456\nvalue = [3934, 0]"] ;
1112 -> 1124 ;
1125 [label="gini = 0.0\nsamples = 267877\nvalue = [424128, 0]"] ;
1111 -> 1125 ;
1126 [label="amount <= -0.297\ngini = 0.001\nsamples = 37360\nvalue = [58852, 15]"] ;
1100 -> 1126 ;
1127 [label="gini = 0.0\nsamples = 4\nvalue = [0, 10]"] ;
1126 -> 1127 ;
1128 [label="oldbalanceDest <= -0.06\ngini = 0.0\nsamples = 37356\nvalue = [58852, 5]"] ;
1126 -> 1128 ;
1129 [label="oldbalanceOrg <= -0.289\ngini = 0.0\nsamples = 22931\nvalue = [36018, 1]"] ;
1128 -> 1129 ;
1130 [label="oldbalanceDest <= -0.242\ngini = 0.0\nsamples = 10201\nvalue = [16058, 1]"] ;
1129 -> 1130 ;
1131 [label="gini = 0.0\nsamples = 5303\nvalue = [8322, 0]"] ;
1130 -> 1131 ;
1132 [label="amount <= -0.297\ngini = 0.0\nsamples = 4898\nvalue = [7736, 1]"] ;
1130 -> 1132 ;
1133 [label="amount <= -0.297\ngini = 0.18\nsamples = 6\nvalue = [9, 1]"] ;
1132 -> 1133 ;
1134 [label="gini = 0.0\nsamples = 5\nvalue = [9, 0]"] ;
1133 -> 1134 ;
1135 [label="gini = 0.0\nsamples = 1\nvalue = [0, 1]"] ;
1133 -> 1135 ;
1136 [label="gini = 0.0\nsamples = 4892\nvalue = [7727, 0]"] ;
1132 -> 1136 ;
1137 [label="gini = 0.0\nsamples = 12730\nvalue = [19960, 0]"] ;
1129 -> 1137 ;
1138 [label="oldbalanceDest <= -0.06\ngini = 0.0\nsamples = 14425\nvalue = [22834, 4]"] ;
1128 -> 1138 ;
1139 [label="gini = 0.0\nsamples = 1\nvalue = [0, 1]"] ;
1138 -> 1139 ;
1140 [label="oldbalanceDest <= 0.007\ngini = 0.0\nsamples = 14424\nvalue = [22834, 3]"] ;
1138 -> 1140 ;
1141 [label="oldbalanceOrg <= -0.288\ngini = 0.002\nsamples = 2057\nvalue = [3255, 3]"] ;
1140 -> 1141 ;
1142 [label="oldbalanceOrg <= -0.289\ngini = 0.001\nsamples = 1911\nvalue = [3027, 2]"] ;
1141 -> 1142 ;
1143 [label="oldbalanceDest <= 0.007\ngini = 0.003\nsamples = 956\nvalue = [1530, 2]"] ;
1142 -> 1143 ;
1144 [label="oldbalanceOrg <= -0.289\ngini = 0.001\nsamples = 955\nvalue = [1530, 1]"] ;
1143 -> 1144 ;
1145 [label="gini = 0.0\nsamples = 952\nvalue = [1528, 0]"] ;
1144 -> 1145 ;
1146 [label="amount <= -0.258\ngini = 0.444\nsamples = 3\nvalue = [2, 1]"] ;
1144 -> 1146 ;
1147 [label="gini = 0.0\nsamples = 1\nvalue = [0, 1]"] ;
1146 -> 1147 ;
1148 [label="gini = 0.0\nsamples = 2\nvalue = [2, 0]"] ;
1146 -> 1148 ;
1149 [label="gini = 0.0\nsamples = 1\nvalue = [0, 1]"] ;
1143 -> 1149 ;
1150 [label="gini = 0.0\nsamples = 955\nvalue = [1497, 0]"] ;
1142 -> 1150 ;
1151 [label="oldbalanceOrg <= -0.288\ngini = 0.009\nsamples = 146\nvalue = [228, 1]"] ;
1141 -> 1151 ;
1152 [label="gini = 0.0\nsamples = 1\nvalue = [0, 1]"] ;
1151 -> 1152 ;
1153 [label="gini = 0.0\nsamples = 145\nvalue = [228, 0]"] ;
1151 -> 1153 ;
1154 [label="gini = 0.0\nsamples = 12367\nvalue = [19579, 0]"] ;
1140 -> 1154 ;
1155 [label="oldbalanceDest <= -0.271\ngini = 0.001\nsamples = 176226\nvalue = [278146, 164]"] ;
1081 -> 1155 ;
1156 [label="amount <= -0.293\ngini = 0.0\nsamples = 41096\nvalue = [64690, 8]"] ;
1155 -> 1156 ;
1157 [label="gini = 0.0\nsamples = 1\nvalue = [0, 1]"] ;
1156 -> 1157 ;
1158 [label="oldbalanceDest <= -0.321\ngini = 0.0\nsamples = 41095\nvalue = [64690, 7]"] ;
1156 -> 1158 ;
1159 [label="oldbalanceOrg <= -0.279\ngini = 0.001\nsamples = 3045\nvalue = [4866, 3]"] ;
1158 -> 1159 ;
1160 [label="gini = 0.0\nsamples = 2073\nvalue = [3303, 0]"] ;
1159 -> 1160 ;
